[{"name": "dense", "kernel": [[0.33630821108818054, -0.2751474678516388, -0.12109994143247604, -0.28134894371032715, -0.21730436384677887, -0.07927823811769485, 0.3457014858722687, -0.15844319760799408, -0.347488135099411, -0.4434167444705963, 0.5014979839324951, -0.08549259603023529, 0.07501769065856934, -0.02396615594625473, 0.15109574794769287, 0.029737427830696106, 0.40536028146743774, 0.2866993248462677, 0.1525658220052719, 0.1018851175904274, 0.15724019706249237, -0.3098149597644806, -0.3749294877052307, 0.4285983443260193, 0.03752833232283592, -0.1997338831424713, 0.40844032168388367, 0.28511929512023926, -0.290802001953125, -0.14537662267684937, 0.34463006258010864, -0.17679496109485626], [0.41532063484191895, -0.23612743616104126, -0.20566479861736298, -0.15630584955215454, 0.22401605546474457, -0.4134681224822998, 0.022402474656701088, -0.4601680040359497, -0.18048514425754547, 0.03712448105216026, -0.19638650119304657, 0.21921269595623016, -0.06240685284137726, 0.11239039897918701, 0.29288503527641296, -0.24417610466480255, 0.008502991870045662, 0.2953246533870697, -0.1805732250213623, -0.43416643142700195, -0.029376912862062454, -0.2706625163555145, -0.33216148614883423, -0.15188288688659668, -0.05541016161441803, 0.11060602217912674, -0.009972082450985909, 0.045202597975730896, -0.23133453726768494, 0.4022500813007355, -0.20538094639778137, -0.3796996772289276], [0.1674664318561554, 0.12156300246715546, -0.08344196528196335, 0.3728848397731781, -0.30945834517478943, -0.28948280215263367, 0.3094439208507538, 0.37159353494644165, 0.011914147064089775, 0.024266144260764122, -0.16521596908569336, -0.2665495276451111, -0.2532157301902771, 0.27198144793510437, 0.24546749889850616, 0.00223286054097116, 0.2389141172170639, -0.06277354061603546, 0.04709295183420181, -0.15573759377002716, 0.3220504820346832, -0.32760709524154663, -0.38837066292762756, -0.099314846098423, 0.25586581230163574, -0.021520104259252548, 0.17417730391025543, 0.26885491609573364, -0.04655807465314865, 0.2439296841621399, 0.10282918810844421, -0.08669912815093994], [-0.2706185281276703, 0.29818886518478394, -0.3981285095214844, -0.3204052448272705, -0.3647606670856476, -0.34886273741722107, 0.27114060521125793, 0.3181251287460327, 0.16982676088809967, 0.2467711865901947, -0.35745885968208313, 0.14641280472278595, -0.18730387091636658, 0.241826131939888, -0.4053155183792114, -0.310451477766037, -0.42691558599472046, -0.3828699588775635, -0.18566028773784637, -0.19120903313159943, 0.10292613506317139, 0.3370479643344879, 0.20070379972457886, 0.06614062190055847, -0.05814710631966591, 0.4124923646450043, 0.21407079696655273, -0.17263734340667725, 0.06607849895954132, -0.2954472005367279, -0.15959762036800385, -0.08190104365348816], [0.3846763074398041, 0.003706403076648712, 0.1384417861700058, -0.27652156352996826, 0.15930460393428802, 0.18843446671962738, 0.0649225115776062, -0.09591589123010635, 0.05825203284621239, -0.15839572250843048, 0.11410264670848846, -0.3247818052768707, 0.22070471942424774, 0.15549367666244507, 0.1555529087781906, -0.32734209299087524, 0.43225207924842834, -0.19544781744480133, -0.4903293251991272, 0.2968120574951172, -0.11010298132896423, -0.009543025866150856, -0.17506961524486542, -0.24692296981811523, -0.030518250539898872, 0.054547347128391266, 0.09781386703252792, 0.08144776523113251, 0.2712235748767853, 0.2479483038187027, 0.055189888924360275, 0.1521359235048294], [-0.1556488275527954, -0.3007723391056061, -0.40904998779296875, -0.10406357795000076, 0.2455892115831375, -0.18279626965522766, 0.17282679677009583, 0.08319209516048431, 0.030276484787464142, -0.24084213376045227, -0.24948999285697937, -0.22623643279075623, 0.15872833132743835, 0.099698506295681, -0.053866852074861526, -0.1541641354560852, 0.038326337933540344, 0.26173603534698486, 0.19257864356040955, -0.3994384706020355, 0.31710880994796753, 0.021945517510175705, -0.31028762459754944, -0.3617307245731354, -0.25510120391845703, 0.47814512252807617, 0.40014126896858215, -0.07787833362817764, -0.18443723022937775, 0.20668725669384003, -0.288724809885025, 0.2422507107257843]], "bias": [0.08284438401460648, 0.10942123830318451, 0.10624776780605316, 0.08238458633422852, 0.11696683615446091, 0.00231945957057178, -0.047276921570301056, 0.1035805270075798, 0.033321257680654526, 0.07074612379074097, 0.14936836063861847, 0.08315742760896683, 0.10543914884328842, -0.02132578380405903, 0.10842160880565643, 0.09265439957380295, 0.10595182329416275, 0.12798169255256653, 0.12031101435422897, 0.16534020006656647, -0.050923965871334076, -0.03388771787285805, 0.09079740941524506, 0.09757131338119507, -0.06006478890776634, 0.0805964395403862, 0.13470721244812012, 0.09135092794895172, 0.08021464943885803, 0.11644869297742844, 0.020413696765899658, 0.09607341885566711], "activation": "relu"}, {"name": "dense_1", "kernel": [[0.2622752785682678, -0.2782153785228729, 0.13167735934257507, 0.13712568581104279, -0.189893901348114, -0.16994020342826843, 0.08012597262859344, 0.5196146965026855, -0.3552282154560089, 0.27972108125686646, -0.051711756736040115, 0.37017595767974854, -0.30748409032821655, -0.3365556001663208, -0.039768073707818985, 0.07953400164842606, 0.07010030001401901, -0.3590405583381653, -0.11261410266160965, 0.17819754779338837, 0.12585973739624023, -0.2570205628871918, -0.02889922261238098, 0.03338728845119476, -0.19707714021205902, -0.11999186873435974, -0.08855973929166794, -0.06484586000442505, -0.3237161338329315, 0.11003103852272034, -0.1680479198694229, -0.13082417845726013], [-0.22995468974113464, -0.05246264860033989, -0.011338837444782257, 0.04577042907476425, 0.17081397771835327, 0.0654541477560997, -0.20149441063404083, -0.4955916702747345, 0.32724085450172424, -0.3159733712673187, 0.08371337503194809, -0.21297842264175415, 0.12943874299526215, 0.027274901047348976, -0.29736119508743286, 0.054601818323135376, -0.01203497126698494, 0.2249021977186203, 0.016941094771027565, -0.41604387760162354, -0.13436663150787354, 0.1119660884141922, 0.04085912927985191, -0.3468216359615326, 0.2375621199607849, -0.30867883563041687, -0.1989128142595291, -0.03516857326030731, 0.2948843240737915, 0.14136092364788055, -0.2458658665418625, 0.3749905228614807], [-0.14820928871631622, 0.10520926117897034, -0.367077499628067, -0.22941747307777405, 0.11942607164382935, 0.34286952018737793, -0.023233162239193916, -0.482788622379303, -0.06983102858066559, -0.3232487440109253, 0.18105685710906982, -0.1137453094124794, -0.06344249844551086, 0.28184106945991516, -0.3487865626811981, -0.2528661787509918, -0.25614237785339355, 0.329109787940979, 0.16763579845428467, 0.023928886279463768, -0.3532170057296753, 0.013735432177782059, -0.0361597053706646, -0.19794462621212006, 0.28618496656417847, -0.10134141147136688, -0.13773882389068604, 0.13482089340686798, 0.17015112936496735, -0.10723606497049332, 0.014321495778858662, 0.0876799076795578], [0.4083081781864166, -0.040390949696302414, 0.22626039385795593, 0.07193052768707275, -0.3333767056465149, -0.33336523175239563, 0.056920941919088364, 0.4169865846633911, -0.28753453493118286, 0.35725855827331543, 0.11237531155347824, 0.34524115920066833, -0.37042108178138733, -0.22916018962860107, 0.13089913129806519, 0.17240656912326813, -0.07740077376365662, -0.019235089421272278, -0.2191336303949356, 0.021085575222969055, 0.10692404955625534, -0.25898295640945435, -0.33562126755714417, 0.23191721737384796, -0.025865785777568817, -0.029859397560358047, -0.04620883986353874, 0.009046737104654312, -0.254938006401062, -0.36736029386520386, 0.17855259776115417, -0.04419001564383507], [0.4035149812698364, -0.2758828401565552, 0.24779340624809265, 0.19390392303466797, -0.022723430767655373, 0.0869854986667633, 0.3777022063732147, 0.13544049859046936, 0.033946551382541656, 0.03860699385404587, -0.3050781488418579, 0.1058691143989563, 0.05954037234187126, -0.1849745810031891, 0.3221297264099121, 0.29356399178504944, 0.1949557214975357, -0.27289536595344543, -0.14743682742118835, 0.010097701102495193, 0.18760785460472107, -0.3093161880970001, -0.15485037863254547, 0.1044129952788353, -0.24161840975284576, 0.3055095374584198, -0.0049340492114424706, -0.343439519405365, -0.2124527096748352, -0.022841177880764008, 0.1693059355020523, 0.048811208456754684], [0.1415511667728424, -0.06679803878068924, 0.2959856390953064, 0.2511082589626312, -0.15569211542606354, -0.38093844056129456, -0.08256854861974716, 0.17709043622016907, 0.008518705144524574, 0.32610994577407837, -0.1143718734383583, 0.20486952364444733, 0.039578940719366074, 0.10379953682422638, 0.11693913489580154, -0.059105776250362396, 0.3156231939792633, -0.21041758358478546, -0.020129233598709106, 0.3588208854198456, 0.31061288714408875, -0.3634353280067444, -0.2817768156528473, 0.32880234718322754, -0.3676620125770569, 0.055250462144613266, 0.002310175448656082, 0.06547456234693527, -0.2646738588809967, -0.2581237256526947, -0.06260581314563751, -0.09120608121156693], [0.20547644793987274, -0.16730527579784393, 0.04417078197002411, -0.07360763847827911, -0.21996745467185974, -0.18304255604743958, 0.40067243576049805, 0.10481433570384979, -0.08736293762922287, 0.2443358600139618, -0.11508652567863464, 0.19837810099124908, 0.007178288418799639, -0.24948760867118835, 0.29182082414627075, 0.33869773149490356, 0.3357948064804077, -0.11225671321153641, -0.09035468846559525, 0.4343777298927307, 0.001133010839112103, 0.06482411175966263, -0.32219186425209045, 0.2977762222290039, -0.28384333848953247, 0.026966169476509094, 0.13511334359645844, 0.14261263608932495, -0.3260272443294525, 0.08528207987546921, -0.0981963723897934, -0.07998654991388321], [-0.18394523859024048, 0.16338831186294556, -0.23098225891590118, -0.13689318299293518, 0.29164281487464905, 0.20167459547519684, -0.1781579703092575, -0.21643581986427307, 0.3191626965999603, -0.36969560384750366, 0.33174654841423035, -0.25792109966278076, 0.1743653267621994, 0.2497672736644745, -0.08377157896757126, -0.12912428379058838, -0.2422700971364975, -0.1421547532081604, 0.07253280282020569, -0.24597294628620148, -0.31320539116859436, -0.11168009787797928, 0.012424263171851635, -0.2268531173467636, 0.26806211471557617, 0.05205344408750534, -0.106499582529068, 0.338707834482193, 0.22150158882141113, 0.252224862575531, 0.16858047246932983, 0.3749019205570221], [-0.14156708121299744, -0.29523101449012756, 0.08534720540046692, 0.22386156022548676, 0.01113827619701624, 0.07097452878952026, -0.017514873296022415, 0.2323017120361328, -0.20936955511569977, -0.15326999127864838, -0.3520892560482025, -0.025742342695593834, -0.07591912150382996, -0.03927811607718468, -0.19160546362400055, 0.2556309103965759, 0.08368287235498428, -0.015713302418589592, -0.05948016792535782, 0.1599634736776352, -0.20240987837314606, -0.23322051763534546, -0.37570515275001526, 0.2847468852996826, -0.3018375337123871, 0.21875913441181183, 0.037591587752103806, -0.3709584176540375, -0.34839656949043274, -0.19723127782344818, -0.10586390644311905, 0.10606292635202408], [0.06233074516057968, -0.33841419219970703, 0.3905812203884125, 0.39498454332351685, -0.1470114141702652, -0.33495697379112244, 0.3023391664028168, 0.43222618103027344, -0.3785944879055023, 0.03214019909501076, -0.32543104887008667, 0.22749871015548706, -0.1714378446340561, -0.037216924130916595, 0.07935045659542084, -0.003174620447680354, 0.23573319613933563, -0.05121632665395737, 0.02716119773685932, 0.14460675418376923, 0.36857086420059204, 0.014254527166485786, -0.35997602343559265, 0.3357994556427002, -0.17547273635864258, 0.25151336193084717, -0.17060290277004242, -0.2839388847351074, -0.024233534932136536, -0.1902395486831665, 0.009709536097943783, -0.2843132019042969], [0.11431242525577545, -0.27817946672439575, -0.06694000214338303, -0.005730038043111563, -0.003922572825103998, -0.249418705701828, -0.05629086121916771, 0.3196856677532196, -0.321906179189682, 0.2911708950996399, -0.07241375744342804, -0.09416576474905014, -0.38573530316352844, -0.32084035873413086, 0.2323889583349228, 0.2174871861934662, 0.31746768951416016, -0.2752073109149933, -0.061827708035707474, 0.4213695526123047, 0.34621983766555786, -0.3122248947620392, -0.16180798411369324, -0.03080390952527523, -0.042286597192287445, -0.11527667194604874, 0.16405247151851654, -0.26144444942474365, 0.04892880097031593, -0.2543855905532837, -0.07157597690820694, -0.28986990451812744], [-0.3522307574748993, -0.30897873640060425, -0.15749342739582062, -0.4459104835987091, -0.0006131351692602038, -0.07201749086380005, -0.019928159192204475, -0.6140239834785461, -0.000588475726544857, -0.21760816872119904, -0.015623576939105988, -0.009722085669636726, -0.20795944333076477, -0.3749747574329376, -0.34511393308639526, -0.1771792322397232, -0.16083046793937683, -0.16878680884838104, 0.23370544612407684, -0.10045108944177628, -0.3291894793510437, -0.33295848965644836, -0.14216148853302002, -0.38710638880729675, -0.3777942955493927, 0.03594479337334633, 0.20801466703414917, 0.07710511237382889, 0.08850207179784775, -0.00862423051148653, 0.05901440978050232, -0.35096475481987], [-0.26563820242881775, 0.10665663331747055, -0.3793816566467285, -0.19797104597091675, -0.024244841188192368, 0.08105270564556122, -0.33972105383872986, -0.15042050182819366, -0.026408707723021507, -0.33148276805877686, -0.11064627021551132, -0.3278277516365051, 0.3612283766269684, -0.07115743309259415, -0.38526254892349243, -0.3163602650165558, -0.3298577070236206, 0.2984311878681183, -0.18826855719089508, -0.2346891313791275, -0.4217926263809204, 0.3150821924209595, 0.014773864299058914, -0.0317268893122673, -0.10297989100217819, -0.1835307627916336, 0.18484216928482056, 0.10306873917579651, 0.13971810042858124, 0.1606253683567047, 0.024057811126112938, 0.031846608966588974], [0.14069005846977234, -0.061606161296367645, 0.2955951988697052, 0.4084447920322418, 0.08288368582725525, -0.009212789125740528, 0.15468762814998627, 0.1282110959291458, -0.3396783471107483, -0.033339571207761765, -0.13407231867313385, 0.3440452218055725, -0.3248087167739868, -0.09145109355449677, 0.33697032928466797, 0.07115325331687927, 0.04430530592799187, 0.05110684782266617, -0.1446188986301422, 0.1254863739013672, 0.05074358358979225, -0.24339915812015533, -0.057200971990823746, 0.3806154131889343, -0.08799977600574493, 0.13866543769836426, -0.1493789404630661, 0.16946032643318176, -0.2561820447444916, 0.11740599572658539, -0.039096295833587646, 0.11468544602394104], [-0.44306984543800354, 0.31261661648750305, -0.2814975082874298, -0.3053397834300995, 0.24263644218444824, 0.3342341184616089, -0.22982202470302582, -0.4498894512653351, -0.008395043201744556, -0.03502273187041283, 0.2056397944688797, -0.3830842971801758, 0.08039798587560654, -0.03326025605201721, -0.17448587715625763, -0.052659690380096436, -0.22270697355270386, 0.17447684705257416, -0.11585566401481628, -0.06617636978626251, -0.37592944502830505, 0.3142938017845154, -0.03949028626084328, -0.08261394500732422, 0.08441884815692902, -0.20901627838611603, -0.07438811659812927, 0.004555325955152512, 0.014188220724463463, 0.2933594286441803, 0.09369156509637833, -0.005342965479940176], [-0.009950095787644386, 0.050257112830877304, -0.35859447717666626, -0.19160963594913483, 0.2803008556365967, 0.17009687423706055, 0.047610193490982056, -0.14516595005989075, -0.07459862530231476, -0.04354694485664368, 0.20771192014217377, 0.006718390621244907, -0.05006306990981102, 0.3518927991390228, -0.16672730445861816, -0.16983406245708466, -0.24659085273742676, 0.1648806631565094, -0.11749293655157089, 0.04284593462944031, -0.32990944385528564, 0.29339125752449036, -0.029148759320378304, -0.13169459998607635, 0.3068549633026123, 0.062331151217222214, -0.2327684909105301, 0.20982101559638977, 0.22296087443828583, 0.09965799003839493, -0.01680302992463112, 0.38195616006851196], [-0.4270203113555908, 0.11578958481550217, -0.12843145430088043, -0.2152390033006668, 0.1656116247177124, -0.14830471575260162, 0.020200734958052635, -0.16781270503997803, 0.07096806913614273, -0.3469652533531189, 0.04265737906098366, -0.1063317358493805, -0.16671541333198547, -0.010090066120028496, -0.2939600348472595, -0.1791493147611618, -0.21211041510105133, 0.15138667821884155, -0.10314556211233139, -0.24014826118946075, -0.44519519805908203, -0.20606550574302673, 0.25625792145729065, -0.4133914113044739, 0.24637651443481445, 0.09324682503938675, -0.06203063949942589, 0.2697584629058838, -0.026243826374411583, 0.05900774151086807, 0.017564861103892326, 0.025444572791457176], [0.39315515756607056, -0.1230974942445755, 0.24180206656455994, -0.04088127985596657, -0.0901547223329544, -0.33169588446617126, 0.07808223366737366, 0.3255939483642578, -0.03283435106277466, 0.3416631519794464, -0.2903830409049988, -0.0015734320040792227, 0.02124622091650963, 0.00447747902944684, 0.3013231158256531, -0.006523369811475277, 0.20125123858451843, -0.23210729658603668, -0.1720127910375595, 0.32507801055908203, 0.07000958174467087, -0.04577436298131943, -0.32917872071266174, 0.24848121404647827, -0.044865939766168594, -0.052171532064676285, -0.16730958223342896, -0.09725296497344971, -0.25281038880348206, -0.11625484377145767, -0.18475230038166046, 0.013527636416256428], [-0.4005659520626068, 0.38530752062797546, -0.11958692967891693, 0.0014847473939880729, -0.02939104102551937, 0.14063626527786255, 0.05768223851919174, -0.5862582921981812, 0.3311797082424164, -0.201001837849617, 0.0959462970495224, -0.00428585521876812, 0.18032443523406982, -0.05527361482381821, -0.31908032298088074, -0.2902093827724457, -0.21824166178703308, 0.11048565804958344, 0.22980625927448273, -0.42577236890792847, -0.21180599927902222, 0.11879853159189224, 0.3671868145465851, -0.09993740171194077, 0.3894840478897095, -0.008477292954921722, -0.17403459548950195, 0.031555186957120895, 0.39970827102661133, 0.0031534491572529078, 0.09384632855653763, 0.19030368328094482], [-0.1992572546005249, 0.372953325510025, 0.06239498779177666, -0.3643404245376587, 0.3631053566932678, 0.3229946196079254, -0.041049037128686905, -0.10307474434375763, 0.2828514873981476, -0.2530224323272705, 0.006219987291842699, -0.3324814736843109, 0.18550509214401245, 0.3071489930152893, 0.11147677153348923, 0.055093295872211456, -0.05591995269060135, -9.437122207600623e-05, -0.2145974487066269, -0.2840939462184906, -0.3923073709011078, 0.09049567580223083, 0.38027921319007874, -0.2741166651248932, 0.011941440403461456, -0.3040597140789032, 0.17955224215984344, 0.1248868852853775, 0.13429097831249237, 0.33625638484954834, -0.2890036404132843, 0.15690146386623383], [-0.4594041407108307, 0.16593898832798004, -0.07887143641710281, -0.3475853502750397, 0.02565804123878479, 0.05271843075752258, -0.23588979244232178, -0.08918508887290955, 0.3219263255596161, -0.028636159375309944, 0.38034743070602417, 0.08859250694513321, 0.169816255569458, 0.11008033901453018, -0.2788974344730377, -0.21696513891220093, -0.37372541427612305, -0.13560135662555695, 0.03964967280626297, -0.1320565789937973, -0.2353932112455368, 0.09902596473693848, 0.14997442066669464, -0.34499338269233704, 0.32118555903434753, -0.28552213311195374, -0.09920448064804077, 0.24389530718326569, 0.10899299383163452, 0.17062512040138245, -0.06692181527614594, 0.020608145743608475], [-0.2654082775115967, 0.3616529107093811, -0.11318935453891754, -0.027519313618540764, 0.053358931094408035, 0.013754667714238167, -0.3897920846939087, -0.39955654740333557, 0.32734352350234985, -0.30923593044281006, 0.2190808206796646, -0.3690634071826935, 0.3570781350135803, 0.03330073133111, -0.25189539790153503, -0.3075477182865143, -0.0715925320982933, 0.30483391880989075, -0.14604327082633972, -0.24341142177581787, -0.007910766638815403, 0.3290696144104004, 0.19550053775310516, -0.19876675307750702, 0.08539403975009918, 0.11368272453546524, -0.03752150014042854, 0.3295522928237915, 0.016181189566850662, 0.29400041699409485, -0.0764961838722229, 0.2077087014913559], [-0.3220748007297516, 0.027985282242298126, -0.22355271875858307, -0.005494970362633467, 0.22972574830055237, 0.35592585802078247, 0.027392150834202766, -0.4744111895561218, -0.08887182921171188, -0.28587180376052856, 0.10777658224105835, -0.20982766151428223, 0.1994173228740692, -0.04940732195973396, -0.241519495844841, -0.26712286472320557, 0.1011636033654213, 0.27920854091644287, 0.08615627139806747, -0.44691169261932373, -0.213188037276268, 0.19523735344409943, 0.018230780959129333, -0.42619654536247253, 0.03155459836125374, -0.3281652629375458, -0.055871766060590744, 0.25814613699913025, 0.07254648208618164, -0.06633065640926361, 0.10732043534517288, 0.3262094259262085], [0.28613483905792236, -0.3366178274154663, -0.03772498667240143, -0.001870353939011693, -0.08984453976154327, -0.2800736725330353, -0.08905404806137085, 0.1880303919315338, -0.224385604262352, 0.3867044448852539, 0.06536593288183212, 0.23364681005477905, -0.0999545082449913, -0.2135085016489029, 0.3055410385131836, 0.24138540029525757, 0.2857438325881958, -0.10902415961027145, -0.23571926355361938, 0.16712568700313568, 0.28106001019477844, 0.03139998018741608, -0.11673494428396225, 0.003663915442302823, 0.12936930358409882, -0.10594721138477325, -0.1689745932817459, -0.2620793581008911, -0.2722962498664856, -0.010360976681113243, -0.10674735903739929, 0.03176966309547424], [0.34763866662979126, -0.11136910319328308, 0.21305057406425476, -0.08058465272188187, -0.2490699738264084, 0.023396799340844154, 0.16694851219654083, 0.07308705151081085, 0.023568827658891678, 0.3892858326435089, -0.11344988644123077, 0.05135007202625275, -0.1919691413640976, -0.24530690908432007, 0.2774476408958435, 0.22572343051433563, 0.060516562312841415, -0.07902531325817108, 0.14367564022541046, 0.11150675266981125, 0.3962206542491913, -0.18478961288928986, -0.26575055718421936, -0.04902772605419159, 0.06678448617458344, 0.2763460874557495, 0.011465917341411114, -0.36005374789237976, -0.29666295647621155, 0.08434481173753738, 0.1339120864868164, -0.15129715204238892], [-0.1547473669052124, -0.054704029113054276, -0.018599938601255417, -0.24457553029060364, 0.3921533226966858, 0.2188120186328888, -0.07488639652729034, -0.37822389602661133, -0.0014596788678318262, 0.08294610679149628, 0.025228645652532578, -0.15784510970115662, 0.1519322246313095, 0.1133238896727562, -0.019409144297242165, -0.3723357617855072, -0.34587040543556213, 0.028235644102096558, -0.18191087245941162, -0.14230971038341522, -0.06834165006875992, 0.09887504577636719, 0.34152454137802124, -0.05641975253820419, 0.35166653990745544, -0.3235515356063843, 0.154280424118042, 0.13200053572654724, -0.05092784762382507, 0.25627145171165466, -0.1514550894498825, 0.26133134961128235], [-0.28447967767715454, -0.10509984195232391, -0.17536857724189758, -0.20526787638664246, -0.31617471575737, -0.14015036821365356, -0.3247448205947876, -0.10868806391954422, -0.01329365000128746, -0.3718441426753998, -0.09032990038394928, 0.07101350277662277, -0.2533798813819885, -0.07906564325094223, -0.057470038533210754, -0.27993884682655334, -0.36159878969192505, 0.0701114609837532, 0.0481233112514019, -0.36188238859176636, -0.0599711574614048, -0.08698657900094986, -0.19005094468593597, -0.06359279155731201, -0.31403326988220215, 0.12585176527500153, 0.11092156916856766, 0.160215824842453, -0.1907052844762802, -0.16727611422538757, 0.04930955916643143, -0.246498703956604], [0.01874641515314579, 0.1619129180908203, -0.3559798300266266, -0.3274894654750824, 0.3457797169685364, 0.03775487095117569, -0.052208226174116135, -0.23494626581668854, -0.026216860860586166, -0.3653814494609833, 0.07129955291748047, -0.36336463689804077, 0.06804349273443222, 0.03159700334072113, -0.3934008479118347, 0.016322923824191093, 0.05959887430071831, 0.05169371888041496, 0.12792372703552246, -0.2685967981815338, -0.2672102451324463, 0.15954403579235077, 0.20593678951263428, -0.09107284247875214, 0.23477664589881897, -0.342143177986145, -0.13788743317127228, 0.04527599737048149, 0.03354303911328316, 0.10479956865310669, 0.10924455523490906, -0.06941080838441849], [0.28688690066337585, -0.060957323759794235, 0.17970986664295197, 0.03672825172543526, -0.2478308081626892, -0.31743958592414856, 0.3635803759098053, 0.5500558018684387, -0.039619818329811096, 0.03695472702383995, -0.07336365431547165, 0.27092912793159485, -0.21396079659461975, -0.34270429611206055, 0.10377798229455948, 0.39138063788414, 0.054522257298231125, -0.21933521330356598, 0.13951711356639862, 0.09967019408941269, 0.216073676943779, -0.22677689790725708, -0.08447486907243729, 0.1675836592912674, 0.10890292376279831, 0.14950443804264069, -0.22231097519397736, -0.26125526428222656, 0.06641431897878647, -0.33669865131378174, 0.05154259130358696, -0.011867662891745567], [-0.29449203610420227, -0.3651479184627533, 0.07454142719507217, -0.12794286012649536, -0.06188438460230827, -0.035547737032175064, 0.026695281267166138, -0.28436189889907837, -0.23496361076831818, -0.3517906367778778, -0.3523986041545868, -0.3532184064388275, -0.2269425094127655, -0.14778678119182587, -0.22489424049854279, 0.09644336998462677, -0.3146326243877411, 0.060679130256175995, -0.17177757620811462, -0.14563725888729095, -0.15936267375946045, -0.2723768651485443, -0.3450772762298584, -0.016411155462265015, -0.2460837960243225, 0.057063572108745575, 0.07165587693452835, -0.0034189659636467695, -0.2473098784685135, 0.005462618079036474, 0.11834350228309631, -0.2886980175971985], [0.04742230102419853, -0.24123036861419678, 0.046926937997341156, 0.0938144102692604, -0.14316032826900482, -0.3519730567932129, 0.13379378616809845, 0.058769650757312775, -0.05127846822142601, -0.09048689901828766, -0.07873204350471497, 0.007151579950004816, -0.07164592295885086, -0.21147851645946503, 0.33112475275993347, 0.3613457679748535, 0.25470128655433655, 0.050696585327386856, -0.062468402087688446, 0.0093548484146595, 0.1799931824207306, -0.20815037190914154, -0.36283788084983826, 0.19180691242218018, -0.10616666078567505, 0.035873688757419586, -0.13851486146450043, -0.16341958940029144, -0.25332021713256836, -0.3225458562374115, 0.03869561851024628, -0.3613540530204773], [0.052000582218170166, -0.32563477754592896, -0.1595066636800766, -0.15081076323986053, -0.10604622960090637, -0.2313646823167801, 0.09443189948797226, 0.045851580798625946, -0.34692275524139404, -0.13306398689746857, -0.09498202055692673, 0.03208332508802414, -0.2499254196882248, -0.3690618574619293, 0.08066817373037338, -0.14349080622196198, -0.11643295735120773, -0.2030652016401291, -0.1451805830001831, -0.32067087292671204, 0.09399625658988953, 0.01751547120511532, -0.17397689819335938, -0.209369957447052, -0.09342484176158905, 0.24204860627651215, -0.10316874831914902, 0.154183492064476, -0.16141274571418762, -0.303222119808197, 0.25358203053474426, -0.07364274561405182], [0.38629448413848877, 0.09608224779367447, 0.14009656012058258, 0.15522752702236176, -0.023142604157328606, 0.15829788148403168, 0.2266969084739685, 0.38556644320487976, -0.20137465000152588, 0.0965571403503418, 0.05802413821220398, 0.31815841794013977, -0.15044118463993073, -0.1668829768896103, -0.03769566863775253, -0.04848796874284744, 0.03338560461997986, 0.1656673103570938, -0.16357837617397308, 0.008407448418438435, 0.010167849250137806, -0.09713461995124817, 0.1930222064256668, 0.18042756617069244, -0.058595288544893265, 0.2748759686946869, -0.152790367603302, -0.14777705073356628, 0.08660280704498291, -0.14872696995735168, -0.16559535264968872, -0.06717605143785477], [-0.26809319853782654, 0.32907411456108093, -0.0226264838129282, -0.1978023499250412, 0.31368207931518555, 0.03678998723626137, -0.015094227157533169, 0.026483044028282166, 0.13994726538658142, 0.11720619350671768, -0.06829099357128143, 0.1793181598186493, -0.0005393517203629017, 0.18466907739639282, -0.07796820998191833, -0.16586653888225555, -0.32460343837738037, 0.0012556547299027443, -0.05529022216796875, 0.022789856418967247, -0.07964533567428589, -0.054258983582258224, 0.14988066256046295, 0.18499208986759186, 0.1094411164522171, -0.09228738397359848, -0.09757237136363983, 0.15260031819343567, 0.16144973039627075, 0.037448104470968246, 0.16416402161121368, 0.15077532827854156], [0.07506584376096725, 0.19939662516117096, 0.15349936485290527, 0.12591499090194702, -0.009956243447959423, 0.2667006552219391, 0.008638747967779636, -0.08532051742076874, 0.22459207475185394, 0.13605496287345886, 0.2982698976993561, 0.1872812956571579, -0.12827293574810028, 0.055457644164562225, 0.1154843419790268, 0.16521471738815308, -0.16326197981834412, 0.2734452486038208, -0.21949106454849243, 0.006569079589098692, 0.053425077348947525, 0.024311834946274757, 0.14170041680335999, -0.15166111290454865, 0.29295849800109863, 0.03976575657725334, 0.08149366825819016, 0.15645477175712585, 0.27552294731140137, 0.2559223473072052, 0.0690673217177391, 0.22452661395072937], [-0.019952770322561264, 0.22585375607013702, -0.11270464956760406, -0.06085770204663277, 0.003999229520559311, -0.10193008929491043, -0.0782882496714592, 0.10057032108306885, 0.030063429847359657, -0.1110537201166153, 0.1261715441942215, -0.2697935998439789, 0.22522345185279846, 0.1591641902923584, 0.12672249972820282, 0.041788242757320404, 0.010959991253912449, 0.23601174354553223, -0.21682274341583252, -0.21530012786388397, -0.09939884394407272, 0.017759859561920166, 0.31225916743278503, 0.10392728447914124, 0.24263620376586914, 0.0898696631193161, -0.2459419220685959, 0.18923309445381165, 0.17773225903511047, 0.2631571590900421, -0.16616691648960114, 0.29603177309036255], [0.35287755727767944, -0.17281034588813782, -0.09032391011714935, 0.17589803040027618, -0.06693709641695023, -0.20525211095809937, -0.005933988373726606, 0.23825770616531372, -0.059689346700906754, 0.14445874094963074, -0.16280348598957062, 0.10635855793952942, -0.0971427708864212, -0.1258663535118103, 0.32623589038848877, -0.03648096323013306, -0.03749997913837433, -0.1410675048828125, 0.20562870800495148, -0.05167325213551521, 0.23114430904388428, 0.14174672961235046, -0.23771312832832336, 0.3200211226940155, -0.04891939088702202, -0.08723792433738708, -0.1305670589208603, -0.257209450006485, 0.038984306156635284, -0.023518694564700127, 0.10793229937553406, -0.012441636994481087], [-0.2506949305534363, -0.15884530544281006, 0.20252196490764618, 0.0648016482591629, 0.21952778100967407, 0.17433367669582367, 0.043718788772821426, 0.04419809579849243, 0.2570289671421051, 0.14054813981056213, 0.2423931509256363, -0.176855206489563, -0.0881376788020134, 0.05787389352917671, 0.1366775631904602, -0.2344249039888382, -0.07446805387735367, -0.10918760299682617, -0.1764746904373169, -0.009011715650558472, -0.06629908829927444, -0.12503258883953094, -0.1869613528251648, 0.11491172015666962, 0.06755821406841278, 0.050406914204359055, -0.12016279250383377, -0.07911435514688492, 0.28474941849708557, 0.019080622121691704, 0.1304658055305481, 0.26347512006759644], [0.3547924757003784, 0.10930843651294708, 0.04410545527935028, 0.23176175355911255, -0.09280846267938614, -0.0971650779247284, 0.14766936004161835, 0.09887713938951492, -0.03285586088895798, 0.14150294661521912, -0.2045726627111435, 0.006832122337073088, 0.01236361637711525, -0.07048288732767105, -0.0908396914601326, -0.13651043176651, -0.09549972414970398, 0.19787615537643433, -0.1222013309597969, 0.0952327698469162, 0.270547091960907, -0.10547109693288803, 0.17151287198066711, 0.023976236581802368, 0.17309123277664185, -0.03287050873041153, -0.10435761511325836, 0.16479623317718506, -0.08630350977182388, -0.07007979601621628, -0.22721724212169647, -0.13330505788326263], [0.05574110522866249, 0.32208192348480225, -0.17129690945148468, 0.04469675198197365, 0.2987436354160309, 0.3502000570297241, -0.018421776592731476, -0.2467687726020813, -0.007803653366863728, -0.32708218693733215, 0.10640117526054382, -0.171607106924057, -0.1021885871887207, 0.33840423822402954, -0.12155948579311371, -0.0034713956993073225, -0.03667064383625984, 0.1420692652463913, 0.14222408831119537, 0.06435590982437134, -0.14353832602500916, 0.24337245523929596, 0.25563573837280273, 0.16133341193199158, 0.17709805071353912, -0.07107498496770859, -0.1662915050983429, -0.07883977144956589, 0.09659286588430405, 0.32017332315444946, -0.026117101311683655, 0.14298053085803986], [0.062062185257673264, 0.17921973764896393, -0.25408145785331726, -0.13871534168720245, 0.06524145603179932, -0.07377146184444427, -0.1051042377948761, 0.009357332251966, 0.12509958446025848, -0.23848401010036469, 0.11461348831653595, -0.046596795320510864, 0.2884261906147003, -0.08438308537006378, 0.163267582654953, -0.14740580320358276, -0.11633240431547165, 0.05618908256292343, 0.056505437940359116, -0.2778773605823517, -0.1674138456583023, 0.02270698919892311, -0.03566776216030121, -0.20854519307613373, 0.2554740309715271, -0.01784037984907627, 0.1760876178741455, -0.1222839206457138, -0.15610115230083466, 0.13053472340106964, -0.07501767575740814, 0.10521676391363144], [0.08382226526737213, -0.038041241466999054, -0.10947258770465851, 0.07440631091594696, 0.021673649549484253, -0.009170333854854107, 0.008354912512004375, -0.03982843831181526, 0.17705968022346497, -0.03652144595980644, -0.10875299572944641, 0.026901105418801308, 0.26435646414756775, 0.3069542646408081, -0.08348377794027328, 0.14430689811706543, -0.08733675628900528, -0.1780461072921753, -0.04241681098937988, -0.06996743381023407, 0.019961506128311157, 0.2501496374607086, 0.23126789927482605, -0.07319942861795425, -0.013383526355028152, 0.19877605140209198, 0.21140441298484802, 0.3031251132488251, 0.2891211211681366, -0.10013456642627716, 0.027038399130105972, -0.03694101795554161], [0.29794418811798096, -0.034450262784957886, -0.044255804270505905, 0.3097192645072937, 0.11839248985052109, -0.2107199728488922, 0.15574565529823303, 0.07592127472162247, -0.16511480510234833, 0.08221418410539627, -0.07464321702718735, -0.061306439340114594, -0.16626718640327454, -0.07059526443481445, 0.0959198847413063, 0.17708176374435425, 0.03998246043920517, 0.059732578694820404, -0.18698318302631378, 0.3381601870059967, 0.10508958995342255, 0.10056858509778976, 0.005638922099024057, 0.22385461628437042, -0.25827574729919434, -0.08768309652805328, -0.0035460127983242273, -0.24846936762332916, -0.0685238316655159, -0.10274169594049454, -0.2670956552028656, -0.18938373029232025], [0.052224792540073395, 0.15142768621444702, 0.07364310324192047, 0.1020025759935379, 0.327423632144928, 0.042819440364837646, -0.08090519160032272, 0.07307702302932739, -0.18194061517715454, -0.04099952429533005, 0.05678274855017662, -0.08486432582139969, 0.08065935224294662, 0.14150920510292053, 0.2566591799259186, 0.14066196978092194, 0.09979300945997238, 0.20099951326847076, 0.012815327383577824, 0.07701025158166885, -0.03190130367875099, 0.06307055801153183, -0.022851239889860153, -0.001562474062666297, 0.19496624171733856, 0.11800572276115417, -0.10083703696727753, 0.06405521929264069, 0.22336262464523315, -0.11241942644119263, -0.006807807832956314, -0.15890392661094666], [0.2985047996044159, 0.2516314387321472, 0.03016417846083641, -0.012606617994606495, -0.013933589681982994, 0.06798480451107025, 0.11867392808198929, 0.18855319917201996, -0.10963575541973114, -0.05531784147024155, -0.21779538691043854, 0.3518657684326172, -0.09991385042667389, -0.22236432135105133, 0.26084208488464355, 0.317497193813324, -0.045740652829408646, -0.12050094455480576, 0.12696291506290436, 0.28566092252731323, 0.052371054887771606, -0.21086151897907257, -0.13799522817134857, 0.181885227560997, 0.17562539875507355, 0.0958300307393074, 0.19595499336719513, -0.263040155172348, -0.009572341106832027, -0.20706582069396973, -0.06934884935617447, 0.07827182859182358], [-0.09731683135032654, 0.07377173751592636, 0.13113029301166534, 0.30214864015579224, -0.17622414231300354, 0.20444650948047638, 0.12429045140743256, 0.23552440106868744, 0.15810760855674744, -0.13998830318450928, 0.09749871492385864, -0.11053308099508286, 0.0031216181814670563, 0.1833995133638382, 0.01607067883014679, -0.15907825529575348, 0.12271339446306229, -0.09864719212055206, -0.18365201354026794, -0.0034611907321959734, 0.008005325682461262, 0.24423660337924957, -0.04941092059016228, -0.20941893756389618, -0.08241298794746399, -0.1570572406053543, -0.12667250633239746, -0.01665583997964859, -0.10409192740917206, 0.00242043100297451, -0.1529095619916916, -0.03670419007539749], [-0.0805109366774559, -0.021175356581807137, 0.0050546228885650635, -0.047403376549482346, -0.1687256395816803, -0.1745302528142929, 0.07592205703258514, -0.09258192032575607, 0.024387072771787643, 0.08056533336639404, -0.15726925432682037, 0.21796587109565735, -0.001806363114155829, -0.05514001101255417, 0.13142910599708557, 0.13658317923545837, 0.08818265050649643, 0.09185004234313965, -0.14399462938308716, -0.03813161328434944, 0.07007517665624619, -0.16860297322273254, 0.06486164778470993, 0.05333893001079559, 0.20760299265384674, -0.10684540867805481, -0.05585084110498428, 0.20648321509361267, 0.06701438874006271, 0.22038070857524872, -0.21098415553569794, 0.22335410118103027], [0.3062809109687805, 0.19919054210186005, 0.10515204817056656, -0.05501749366521835, -0.14791087806224823, 0.07424347847700119, -0.12553264200687408, 0.05380450561642647, 0.1721009910106659, -0.09676627814769745, 0.18322235345840454, 0.15008389949798584, -0.10675124824047089, -0.17088177800178528, 0.10831984877586365, 0.03908617049455643, 0.1850028932094574, 0.1962132751941681, -0.11260822415351868, 0.306894987821579, -0.05446343123912811, 0.20862971246242523, 0.2429245412349701, 0.08388689160346985, 0.11698136478662491, -0.12325821816921234, -0.1767282634973526, -0.052293017506599426, 0.23306895792484283, -0.007079392205923796, -0.2628830373287201, 0.0033321045339107513], [-0.023608047515153885, 0.012667435221374035, 0.22569459676742554, 0.25665879249572754, -0.015849946066737175, 0.18673501908779144, 0.06272095441818237, 0.1557518094778061, -0.11627525836229324, 0.14149993658065796, 0.026213333010673523, 0.17572595179080963, 0.15248292684555054, -0.08839080482721329, -0.0041119991801679134, 0.3420552611351013, 0.24223592877388, 0.04190909117460251, -0.2148599475622177, 0.019518891349434853, 0.3483767807483673, 0.1581861823797226, 0.05703575164079666, 0.04321754351258278, -0.009703436866402626, 0.011297151446342468, -0.0982591062784195, 0.1854299008846283, -0.04001760482788086, -0.005352973472326994, 0.10694234818220139, 0.00807796698063612], [0.21833325922489166, -0.2877649962902069, 0.29118043184280396, -0.07351165264844894, 0.19619666039943695, -0.23168252408504486, 0.287651926279068, 0.013055508024990559, -0.16189809143543243, 0.20084205269813538, -0.15015928447246552, 0.27262747287750244, 0.11730923503637314, -0.034094054251909256, 0.2615433931350708, 0.29524990916252136, 0.22110410034656525, 0.1451711803674698, 0.07216969132423401, -0.012797461822628975, 0.04513878747820854, -0.024590425193309784, 0.14999663829803467, 0.2557096481323242, 0.10597017407417297, 0.00391412852331996, -0.028819851577281952, -0.08364364504814148, -0.3099704086780548, 0.135507270693779, -0.18026329576969147, 0.15489129722118378], [0.36797624826431274, -0.06025223806500435, 0.045507900416851044, -0.03670179843902588, -0.19190914928913116, 0.07843544334173203, 0.36052021384239197, 0.059067871421575546, 0.04832160845398903, 0.327434778213501, 0.11121131479740143, 0.3236950933933258, 0.19725336134433746, 0.08806131035089493, 0.09596545249223709, 0.2461964637041092, 0.29962971806526184, -0.01533336192369461, -0.08324779570102692, 0.3163483738899231, 0.12132757157087326, -0.0007182019762694836, 0.04404599219560623, 0.19672267138957977, -0.23807814717292786, -0.1331859827041626, 0.21023796498775482, 0.2384614199399948, 0.014410905539989471, -0.16595932841300964, -0.07833492755889893, 0.13393524289131165], [0.347006231546402, 0.07931187003850937, 0.062141433358192444, 0.06866557896137238, 0.1734098494052887, 0.1968926042318344, -0.020819416269659996, 0.22119909524917603, 0.0060294875875115395, 0.26532045006752014, 0.08275637775659561, -0.06126323714852333, 0.2653117775917053, 0.14218302071094513, -0.08670847117900848, 0.029102209955453873, 0.11848507821559906, 0.2288193702697754, -0.2264411896467209, -0.04608390852808952, 0.12387106567621231, -0.06764660030603409, 0.08017745614051819, 0.17127297818660736, 0.0002695778966881335, -0.20331324636936188, -0.22276656329631805, 0.06492456048727036, -0.11845854669809341, 0.31992825865745544, -0.1933806985616684, -0.07152529060840607], [-0.07592825591564178, -0.19024232029914856, 0.05452035740017891, -0.025057855993509293, 0.10587535053491592, 0.23230904340744019, -0.09315597265958786, 0.01636587455868721, 0.16476276516914368, 0.01056162640452385, -0.15195880830287933, 0.034851063042879105, 0.0989236831665039, -0.021926412358880043, 0.26751846075057983, -0.06070622801780701, -0.18190890550613403, -0.2263164222240448, 0.12685300409793854, 0.22092147171497345, -0.011230569332838058, -0.061824917793273926, -0.26645439863204956, -0.12235540896654129, -0.03930175304412842, 0.1130424290895462, 0.19262567162513733, -0.10070690512657166, -0.14623583853244781, -0.15491025149822235, -0.13967254757881165, 0.09679312258958817], [-0.24398717284202576, 0.06003560870885849, -0.03300205245614052, 0.11661054939031601, 0.034026406705379486, -0.030984925106167793, -0.18915027379989624, -0.05546436831355095, -0.0070088510401546955, 0.1488507091999054, 0.19672884047031403, -0.007148556876927614, -0.002136815804988146, 0.16348376870155334, 0.01331805344671011, 0.10471061617136002, -0.1684185415506363, -0.02455884777009487, -0.012425539083778858, -0.0022564041428267956, 0.12978507578372955, 0.19539833068847656, -0.07784831523895264, 0.20064836740493774, 0.13718350231647491, 0.1263917237520218, 0.036228831857442856, 0.13357484340667725, -0.017891203984618187, -0.05063951388001442, 0.07175718247890472, -0.0406651608645916], [0.09554651379585266, 0.08819997310638428, 0.042585354298353195, 0.01593729667365551, -0.0642336830496788, 0.08807937055826187, 0.20813900232315063, 0.13321048021316528, 0.32015666365623474, 0.07989905774593353, 0.3117075562477112, 0.06222502142190933, 0.14908750355243683, -0.07086768001317978, -0.13008269667625427, 0.074722059071064, 0.022629136219620705, 0.23174279928207397, -0.25602659583091736, -0.06978850066661835, 0.1544054001569748, 0.10836111754179001, 0.2243298888206482, -0.19936959445476532, 0.29033082723617554, 0.06857961416244507, -0.22298800945281982, 0.03553329035639763, 0.19649721682071686, 0.16554313898086548, -0.06317395716905594, 0.3206193447113037], [0.05899464339017868, -0.1691872775554657, 0.09757402539253235, 0.22780002653598785, 0.11389533430337906, 0.1180279552936554, -0.006806837860494852, 0.15585283935070038, 0.20053115487098694, 0.14003628492355347, -0.13001751899719238, 0.23485352098941803, 0.1035589948296547, 0.1208977922797203, 0.2955074906349182, 0.2324484884738922, 0.32624784111976624, -0.13102468848228455, -0.1312568634748459, 0.1490798443555832, 0.23258253931999207, -0.06751900166273117, -0.08374571055173874, -0.13499072194099426, 0.18083955347537994, -0.2111062854528427, -0.1908358484506607, 0.2344144731760025, -0.16299216449260712, -0.15795788168907166, 0.05128510296344757, -0.21057187020778656], [-0.041006285697221756, -0.10538669675588608, 0.057010114192962646, 0.1780369132757187, 0.06973075866699219, 0.27787190675735474, 0.011065470986068249, -0.11604349315166473, 0.11182746291160583, 0.07723424583673477, 0.2904815375804901, -0.17761912941932678, -0.03481949865818024, -0.0032933754846453667, -0.21604546904563904, -0.19888438284397125, 0.06684232503175735, 0.25890547037124634, 0.08378380537033081, -0.04190721735358238, -0.04022761434316635, 0.02861403487622738, 0.14695388078689575, 0.0939633846282959, 0.08439262956380844, -0.029116274788975716, 0.18143822252750397, 0.19217057526111603, -0.08093070983886719, -0.141941636800766, 0.009179371409118176, 0.027811961248517036], [-0.04822797700762749, 0.017899995669722557, 0.24008111655712128, -0.17418870329856873, 0.2408638596534729, -0.15744709968566895, -0.07185569405555725, 0.04115484282374382, 0.1444871872663498, 0.020014705136418343, 0.12839892506599426, 0.22889533638954163, 0.0012390795163810253, 0.11430500447750092, 0.09846322238445282, -0.026986414566636086, 0.21962633728981018, 0.23421205580234528, -0.2718019485473633, 0.04466787353157997, 0.07352295517921448, -0.07622922211885452, -0.09730622917413712, 0.1967838555574417, -0.0106020113453269, -0.21170777082443237, -0.22208867967128754, -0.07759319245815277, 0.02267635241150856, 0.13479746878147125, -0.08572956919670105, -0.13726264238357544], [0.004775248002260923, 0.16917921602725983, -0.005973513238132, 0.16789066791534424, 0.04356537014245987, -0.2658616304397583, 0.2900666296482086, 0.1999622881412506, -0.11617065966129303, 0.3195224106311798, -0.01751035265624523, 0.1553170084953308, -0.2239474356174469, -0.011943047866225243, 0.02290951833128929, 0.2919429838657379, 0.055807992815971375, -0.07397645711898804, 0.1504969596862793, 0.07689599692821503, 0.14155460894107819, 0.08657123148441315, 0.09872473776340485, 0.008615625090897083, 0.09533825516700745, 0.1428515464067459, -0.18312303721904755, 0.1495458334684372, 0.07812909036874771, 0.2119559496641159, 0.1779216229915619, -0.13584844768047333], [-0.026424074545502663, -0.07238805294036865, 0.011488808318972588, -0.0069132703356444836, -0.03238065168261528, 0.2531241476535797, 0.07992295920848846, 0.30637019872665405, 0.3217483162879944, -0.12043289840221405, 0.3026733100414276, -0.06828880310058594, 0.050167642533779144, 0.09051907807588577, 0.20902857184410095, 0.14035747945308685, 0.23460763692855835, -0.020324381068348885, -0.21316318213939667, 0.08404421806335449, 0.20303867757320404, 0.02186151221394539, -0.194429412484169, 0.055826958268880844, -0.009717016480863094, -0.14415471255779266, 0.16038289666175842, 0.08335307985544205, -0.061711277812719345, 0.08527266979217529, 0.01293995976448059, -0.11924130469560623], [-0.03492051362991333, 0.2482059895992279, 0.14656388759613037, 0.07944177836179733, -0.11619704961776733, 0.2656826376914978, 0.09786966443061829, 0.010151036083698273, -0.09255985915660858, -0.04860473424196243, 0.2748355567455292, -0.030979828909039497, -0.032453496009111404, 0.1797453761100769, -0.27626076340675354, 0.10857107490301132, 0.14919094741344452, 0.26772093772888184, -0.12782245874404907, 0.20068995654582977, -0.1964893639087677, -0.14448809623718262, 0.1743972897529602, -0.2731241285800934, 0.04031551629304886, 0.1841491162776947, 0.041659124195575714, -0.05886247381567955, 0.22652706503868103, 0.31520381569862366, 0.10749486833810806, -0.10010850429534912], [-0.05726296454668045, -0.004840213805437088, 0.09581819921731949, 0.2115529328584671, 0.21005046367645264, 0.12825973331928253, 0.22831952571868896, 0.1518438458442688, 0.1561916023492813, 0.22517137229442596, 0.07997345924377441, 0.30702269077301025, -0.024285025894641876, 0.2272830456495285, 0.23083911836147308, 0.06629440933465958, 0.2663891911506653, -0.15697629749774933, -0.26046186685562134, 0.13749225437641144, 0.04542563855648041, 0.14209534227848053, -0.039036113768815994, 0.012412714771926403, -0.06760875135660172, 0.06445608288049698, 0.10564307123422623, 0.19457580149173737, 0.2361827939748764, -0.1324903517961502, 0.1983737349510193, 0.028525207191705704], [-0.11276927590370178, 0.22180870175361633, -0.014360557310283184, -0.04027882590889931, -0.024483662098646164, -0.17211997509002686, -0.03990936279296875, 0.30641159415245056, 0.08428238332271576, 0.01742907427251339, -0.2280370593070984, -0.0006469039362855256, -0.13203568756580353, 0.10332298278808594, 0.23701635003089905, 0.12346356362104416, -0.15397143363952637, -0.12804025411605835, -0.05165363475680351, 0.36056238412857056, 0.1161319687962532, 0.07384651154279709, 0.19518612325191498, 0.01948721334338188, -0.1553938239812851, 0.05933709070086479, 0.10580769926309586, 0.020212369039654732, -0.11412832140922546, 0.16088689863681793, 0.08231569826602936, -0.11675037443637848], [-0.07364454865455627, -0.030462831258773804, -0.0008582951850257814, -0.013586536981165409, 0.09528376162052155, 0.35771894454956055, -0.08365689218044281, 0.08937211334705353, -0.09264091402292252, 0.2727285325527191, 0.2469441145658493, 0.2834639847278595, 0.23579959571361542, 0.20469895005226135, 0.03093547187745571, -0.14005789160728455, 0.14156632125377655, -0.16512401401996613, 0.11914371699094772, -0.14047473669052124, 0.2391578108072281, 0.14294208586215973, 0.17532473802566528, 0.2767215669155121, 0.1246611624956131, -0.10651331394910812, -0.06552518904209137, 0.11972972005605698, 0.06137869134545326, 0.13795016705989838, 0.056012872606515884, 0.239996537566185]], "bias": [0.15587778389453888, 0.08808638900518417, 0.1158246099948883, 0.1148645281791687, 0.012013408355414867, 0.02075636200606823, 0.09988079965114594, 0.21329085528850555, 0.06939974427223206, 0.09293364733457565, 0.06714360415935516, 0.10738677531480789, 0.011735406704246998, 0.06870526820421219, 0.09970735013484955, 0.09357969462871552, 0.09064379334449768, -0.013407519087195396, -0.03973807394504547, 0.1271781474351883, 0.12671644985675812, 0.04975401237607002, -0.027157792821526527, 0.0762351006269455, 0.0003744455170817673, -0.026827814057469368, -0.02583020180463791, -0.011861572973430157, 0.07039976865053177, 0.08398135751485825, -0.042068395763635635, 0.0013510289136320353], "activation": "relu"}, {"name": "dense_2", "kernel": [[0.1983625590801239], [-0.19511467218399048], [0.2794474959373474], [0.22256384789943695], [-0.4084888994693756], [-0.38193202018737793], [0.26982980966567993], [0.22015275061130524], [-0.19894666969776154], [0.35089603066444397], [-0.18226484954357147], [0.2629539966583252], [-0.3509288728237152], [-0.2853236198425293], [0.5393606424331665], [0.34213265776634216], [0.3723943829536438], [-0.23418229818344116], [-0.15084265172481537], [0.29868781566619873], [0.23882097005844116], [-0.5223530530929565], [-0.17052949965000153], [0.3660378158092499], [-0.16295377910137177], [0.38139116764068604], [-0.08224639296531677], [-0.2853821814060211], [-0.38314375281333923], [-0.42843419313430786], [0.056788571178913116], [-0.3878432512283325]], "bias": [0.08200959116220474], "activation": "sigmoid"}]