[{"name": "meta_dense_1", "kernel": [[-0.29251083731651306, 0.1896200180053711, 0.14817684888839722, -0.09619947522878647, 0.01793510466814041, -0.03455177694559097, 0.2267470359802246, -0.20687304437160492, -0.005079389549791813, 0.0827350988984108, 0.14955899119377136, 0.13239094614982605, -0.10662393271923065, -0.13332223892211914, 0.2910185754299164, -0.1435604691505432, -0.2691759765148163, 0.24341945350170135, -0.25487011671066284, 0.3326316773891449, -0.29263657331466675, -0.1472836136817932, -0.21128392219543457, 0.1846892386674881, 0.0722295418381691, -0.19106988608837128, 0.12933947145938873, 0.22542083263397217, 0.23327407240867615, 0.11587024480104446, -0.30423492193222046, 0.11729419231414795, -0.11958213895559311, 0.07612090557813644, 0.33207327127456665, 0.16670387983322144, -0.22456206381320953, 0.15102128684520721, 0.23523129522800446, -0.051025524735450745, -0.07804356515407562, 0.15402980148792267, -0.001443800749257207, 0.09763878583908081, -0.1543208658695221, -0.08031188696622849, -0.09405957907438278, 0.16326473653316498, 0.06342621147632599, 0.21246249973773956, -0.09773565083742142, 0.022407567128539085, 0.3255994915962219, -0.09473879635334015, 0.2072080373764038, 0.04490014910697937, -0.31609243154525757, 0.06248939037322998, -0.16088761389255524, 0.18865154683589935, 0.24431848526000977, -0.25996705889701843, -0.02432527393102646, 0.1585339903831482], [0.014836621470749378, 0.1826825588941574, 0.07821805775165558, 0.015811005607247353, -0.23401884734630585, -0.26034098863601685, 0.23571926355361938, 0.03212053328752518, 0.1764514446258545, -0.30150243639945984, -0.19267183542251587, -0.2957971692085266, 0.2571653425693512, 0.17727552354335785, 0.2485896199941635, -0.07850777357816696, -0.20361407101154327, 0.13103604316711426, 0.15300674736499786, -0.1518624722957611, 0.02139199525117874, 0.07051081955432892, 0.11977382749319077, -0.025112733244895935, 0.06813795864582062, 0.038781195878982544, 0.2589191198348999, 0.2452424168586731, -0.1981697976589203, -0.07249891012907028, -0.2086118459701538, -0.17509104311466217, 0.1440955549478531, 0.15932780504226685, 0.2870994806289673, -0.2602427899837494, -0.21195098757743835, 0.12941686809062958, 0.1376967877149582, -0.30992451310157776, -0.21957458555698395, -0.26256126165390015, 0.22099114954471588, 0.20634080469608307, 0.13061346113681793, 0.20373831689357758, -0.25718703866004944, 0.32249778509140015, -0.12965530157089233, 0.1301775723695755, 0.0012043460737913847, 0.09060492366552353, 0.015505035407841206, 0.18899792432785034, 0.13716380298137665, -0.02575667016208172, -0.12835970520973206, 0.28034815192222595, 0.03988457843661308, 0.25587496161460876, -0.21566708385944366, 0.19995558261871338, 0.3039785921573639, -0.1424434781074524], [0.17704644799232483, -0.2595904469490051, -0.2712021768093109, -0.0956278145313263, 0.16087181866168976, -0.010044597089290619, -0.23997710645198822, 0.11237966269254684, 0.2067771852016449, 0.08220939338207245, 0.06436461210250854, 0.2226785123348236, 0.08741339296102524, -0.05933883413672447, -0.047493480145931244, -0.26095619797706604, 0.2138427495956421, 0.19887065887451172, -0.19882667064666748, -0.02992926351726055, 0.18499329686164856, 0.034874774515628815, 0.00537882000207901, -0.08342309296131134, -0.18623387813568115, 0.12988118827342987, 0.10695809125900269, -0.10019674897193909, -0.18838082253932953, -0.1334969848394394, -0.049083560705184937, 0.26603832840919495, -0.1332162767648697, 0.300452321767807, 0.12764132022857666, 0.10989397764205933, -0.2355816811323166, -0.2735855281352997, -0.017049916088581085, -0.09933672845363617, 0.18727712333202362, -0.20993055403232574, -0.1460619568824768, -0.13092371821403503, 0.12171757221221924, 0.10845816880464554, 0.19692476093769073, 0.17320966720581055, 0.2983090579509735, -0.0597553476691246, -0.24055711925029755, -0.018032848834991455, 0.1983804553747177, -0.3204706013202667, -0.146214559674263, -0.14248159527778625, -0.26701465249061584, 0.20581188797950745, -0.024507887661457062, -0.19970321655273438, 0.2910551130771637, -0.297063410282135, 0.12102197110652924, -0.26491039991378784], [-0.08506327867507935, 0.0743926391005516, 0.20711086690425873, 0.03727740794420242, -0.0017778807086870074, 0.09453944861888885, -0.28143376111984253, 0.1614512950181961, -0.11538487672805786, -0.13058865070343018, 0.04390093311667442, 0.03274295851588249, -0.2215837687253952, -0.07776636630296707, -0.20690572261810303, 0.10495921969413757, -0.25997671484947205, 0.05478670075535774, 0.17224673926830292, 0.10031729936599731, -0.2790455222129822, -0.15347614884376526, -0.04443226382136345, 0.06496509164571762, 0.13630902767181396, 0.03455609455704689, -0.21849310398101807, -0.013287541456520557, 0.1824290007352829, -0.25197890400886536, 0.06698145717382431, 0.08297718316316605, -0.01844402775168419, -0.24938209354877472, 0.16274906694889069, 0.09185110777616501, -0.318198025226593, 0.15971781313419342, -0.027919193729758263, 0.24314191937446594, 0.1705556958913803, 0.009543659165501595, 0.038627274334430695, -0.2601301372051239, 0.14427947998046875, -0.08641292154788971, 0.17553378641605377, -0.07255393266677856, -0.16863924264907837, 0.01568624936044216, -0.1967594176530838, -0.07074270397424698, 0.10055042803287506, -0.23496170341968536, -0.145046204328537, -0.1414472758769989, -0.05338498204946518, -0.13881511986255646, 0.29772406816482544, 0.029582563787698746, 0.22044400870800018, -0.036823876202106476, 0.01763090491294861, -0.24012050032615662], [0.0928981825709343, 0.26467785239219666, -0.20613113045692444, -0.24588581919670105, 0.22182105481624603, 0.0330674983561039, 0.181626096367836, -0.013230417855083942, 0.03313836082816124, -0.11275693029165268, -0.06694573909044266, -0.09723023325204849, 0.14377234876155853, -0.22861239314079285, 0.25162991881370544, -0.21418529748916626, -0.11023540049791336, -0.23257040977478027, -0.05391709506511688, -0.033320292830467224, -0.3093896210193634, 0.1637396365404129, 0.14181368052959442, 0.004207179415971041, 0.11247346550226212, 0.061553385108709335, 0.16042497754096985, 0.00714457780122757, -0.19255836308002472, 0.15021489560604095, 0.14481082558631897, 0.1501346081495285, 0.2297472208738327, -0.17402221262454987, 0.005924510769546032, -0.15377862751483917, -0.09592737257480621, -0.24377427995204926, -0.30687016248703003, 0.23046790063381195, 0.08819562941789627, -0.0811157375574112, 0.0796908289194107, 0.17642013728618622, 0.0701548308134079, -0.25886863470077515, 0.23130963742733002, 0.09599699825048447, 0.24242481589317322, 0.2890254259109497, 0.2420738786458969, 0.2590698301792145, 0.1712033897638321, -0.012190085835754871, -0.25275981426239014, 0.29759883880615234, 0.19205212593078613, -0.010718416422605515, 0.26650547981262207, -0.28796812891960144, -0.11643677204847336, 0.05143173784017563, -0.08029437065124512, 0.006611296441406012], [-0.28499332070350647, 0.06881612539291382, -0.1967785358428955, 0.14992552995681763, 0.2319621443748474, 0.2480587363243103, 0.007110046222805977, -0.021702032536268234, 0.3317784368991852, -0.19242161512374878, 0.005742002744227648, -0.22872008383274078, -0.08129467815160751, 0.1330743283033371, -0.24537430703639984, -0.23712493479251862, 0.15077534317970276, -0.10244952887296677, -0.24099856615066528, 0.2818301022052765, 0.06647341698408127, 0.14673548936843872, 0.27348291873931885, 0.2571497857570648, 0.18666598200798035, -0.08399824798107147, 0.11279170960187912, 0.1385457068681717, -0.22091363370418549, 0.16114023327827454, -0.03248515725135803, -0.1132671982049942, 0.3093322217464447, -0.2367650270462036, -0.03155171871185303, 0.19230568408966064, -0.020682446658611298, -0.2681383788585663, 0.0328662171959877, -0.2913035750389099, -0.2857862710952759, 0.18316802382469177, 0.2844323217868805, -0.09142697602510452, 0.23715299367904663, 0.03495360538363457, 0.12095795571804047, 0.10161010175943375, -0.09257064014673233, -0.28616392612457275, -0.06581617146730423, -0.06113576143980026, 0.1309714913368225, 0.2862560451030731, -0.26670902967453003, 0.08151980489492416, 0.06303849816322327, -0.016749292612075806, 0.17871391773223877, 0.14823555946350098, -0.26933926343917847, -0.2013445645570755, 0.2733519673347473, -0.28368163108825684]], "bias": [0.047283027321100235, -0.017077915370464325, -0.0014149612979963422, 0.01617322489619255, -0.00381822744384408, 0.00027582558686845005, -0.001254715258255601, 0.03219619020819664, 0.03806848078966141, -0.016085021197795868, -0.048310406506061554, 0.03679634630680084, -0.00040126865496858954, 0.005901194643229246, 0.02927512116730213, 0.02415931597352028, 0.032718561589717865, 0.03965802490711212, 0.045817237347364426, 0.04614942520856857, 0.04649318382143974, -0.01163857989013195, 0.040721576660871506, 0.04289165139198303, 0.007085557095706463, 0.02297142893075943, 0.0425315797328949, 0.0454721562564373, 0.02328542433679104, -0.005612726788967848, 0.036422599107027054, -0.028766034170985222, 0.015895962715148926, 0.03733299300074577, 0.04409446939826012, -0.003669238882139325, -0.036092568188905716, 0.01868957281112671, 0.016308579593896866, 0.0296678114682436, 0.03821863979101181, 0.03780947998166084, 0.018639948219060898, -0.032856497913599014, -0.018575448542833328, -0.036479558795690536, 0.00035473547177389264, 0.043682970106601715, -0.015851521864533424, 0.038599006831645966, -0.02315237745642662, -0.030550286173820496, 0.04091043025255203, 0.030031468719244003, -0.039147887378931046, -0.01620773784816265, 0.030003536492586136, 0.03718056157231331, -0.02099001407623291, -0.041982993483543396, 0.04725849628448486, 0.017496159300208092, 0.042936231940984726, 0.012493178248405457], "activation": "relu"}, {"name": "text_dense_1", "kernel": [[0.06030382588505745, -0.10174665600061417, 0.10149984061717987, -0.06959755718708038, -0.12971872091293335, -0.0972571074962616, -0.09161635488271713, 0.10833342373371124, -0.028358276933431625, -0.04950271546840668, -0.06293752789497375, 0.15582720935344696, 0.02584102377295494, 0.0476270392537117, 0.10485458374023438, 0.16341771185398102, 0.07290968298912048, -0.08122792840003967, 0.06380268931388855, 0.04286717250943184, 0.1038653627038002, 0.10701365023851395, -0.08584216982126236, 0.07313016802072525, -0.10028306394815445, -0.07241576910018921, 0.06005851924419403, 0.13597488403320312, 0.005479541141539812, 0.11456455290317535, 0.02608083374798298, -0.0023701514583081007, 0.021751485764980316, -0.058242425322532654, 0.04042422026395798, 0.024680795148015022, -0.10840478539466858, 0.11561288684606552, -0.10261613875627518, -0.10213346779346466, -0.09414659440517426, 0.07757522165775299, 0.021807635203003883, 0.1794251948595047, 0.1545589417219162, -0.0175858736038208, 0.18745528161525726, 0.056164875626564026, -0.13343895971775055, 0.10227987170219421, 0.1687886267900467, 0.05729134753346443, 0.08964554965496063, 0.10605574399232864, 0.04215311259031296, 0.11807304620742798, -0.010351799428462982, 0.15533344447612762, -0.009236072190105915, -0.059029217809438705, -0.0693901926279068, -0.08092038333415985, 0.039191585034132004, 0.016461104154586792, -0.12406211346387863, -0.11325902491807938, 0.059096526354551315, -0.07560981065034866, 0.04599994793534279, 0.13529501855373383, 0.11331738531589508, 0.11049015820026398, -0.05221404880285263, 0.13434776663780212, 0.040418270975351334, 0.19872833788394928, 0.0382884182035923, 0.08346469700336456, 0.0024724698159843683, 0.06936801970005035, -0.05913528427481651, -0.07811098545789719, 0.13560223579406738, 0.017906732857227325, -0.07275011390447617, -0.021031228825449944, 0.11650045961141586, 0.06457731872797012, 0.07888711988925934, 0.14434389770030975, 0.11338910460472107, -0.08405232429504395, 0.08601357787847519, 0.053384315222501755, -0.01645311899483204, 0.10043972730636597, -0.09953072667121887, 0.1824093759059906, -0.09037385135889053, 0.06323586404323578, -0.012005427852272987, 0.09682159870862961, -0.07424673438072205, 0.02128669060766697, -0.03177080303430557, 0.03018775023519993, -0.11748160421848297, 0.07425297051668167, 0.0960671529173851, -0.09757471084594727, -0.13286025822162628, 0.07499346882104874, 0.08296628296375275, 0.13275285065174103, 0.14499492943286896, -0.1089782640337944, 0.12301606684923172, 0.16085734963417053, 0.03256140276789665, 0.04493056610226631, -0.02005130797624588, 0.19041292369365692, 0.08983972668647766, 0.09257515519857407, -0.01221403293311596, -0.09816586226224899, 0.1396171599626541, -0.05056404322385788], [-0.044131968170404434, 0.0693064033985138, -0.16591838002204895, 0.09904813766479492, -0.11612532287836075, -0.12463407963514328, -0.00820042472332716, 0.04171846807003021, -0.10904761403799057, -0.05288608744740486, -0.06575161218643188, -0.013294687494635582, 0.08308470249176025, 0.009869501926004887, -0.08748932182788849, -0.002950097434222698, -0.07281174510717392, 0.08038053661584854, -0.037020083516836166, 0.12819421291351318, 0.014872914180159569, -0.153571218252182, -0.03600481525063515, -0.004228268750011921, 0.12594127655029297, -0.17531965672969818, -0.08381076902151108, 0.011936759576201439, -0.09913965314626694, 0.05517293140292168, -0.09704495966434479, 0.11355197429656982, -0.11467301845550537, -0.18903978168964386, -0.0013586841523647308, 0.038612812757492065, 0.07451294362545013, -0.1511974334716797, -0.10717985033988953, -0.043418705463409424, 0.006599282845854759, 0.08656264841556549, 0.09178778529167175, -0.15920335054397583, -0.17030036449432373, -0.15824280679225922, -0.0013310748618096113, -0.04727683961391449, -0.08792944997549057, -0.0345122329890728, -0.16884464025497437, 0.09212997555732727, -0.07130777835845947, 0.07329150289297104, -0.12358220666646957, -0.13312910497188568, -0.09254717826843262, 0.11754131317138672, -0.1752564013004303, 0.0943528339266777, -0.16497284173965454, 0.07544136792421341, -0.0772649273276329, 0.028531178832054138, 0.046503953635692596, -0.11434777081012726, -0.12563574314117432, -0.19510875642299652, -0.04581945016980171, 0.004678124561905861, 0.03870782628655434, -0.034074816852808, 0.0016600649105384946, -0.07569597661495209, 0.0473291277885437, 0.10364238172769547, 0.015580734238028526, -0.09652137011289597, 0.1480589509010315, 0.06797253340482712, 0.1170119196176529, 0.07421708852052689, -0.08624172955751419, -0.17931613326072693, -0.024859486147761345, 0.14261020720005035, -0.1477024406194687, -0.10966397076845169, -0.035422563552856445, 0.13707955181598663, 0.08659254014492035, -0.15499800443649292, 0.11993119865655899, 0.11897952109575272, -0.0320422425866127, -0.03410925343632698, -0.07847171276807785, -0.17913194000720978, -0.06315498054027557, 0.019261585548520088, -0.10815465450286865, 0.0169470626860857, -0.027404841035604477, -0.04976045712828636, 0.08072660118341446, 0.09136667847633362, 0.051570627838373184, -0.06975116580724716, -0.13447187840938568, 0.06917820125818253, 0.07398999482393265, -0.15729813277721405, -0.16086050868034363, 0.15011389553546906, 0.017725745216012, 0.1425752490758896, -0.07405189424753189, 0.029396194964647293, 0.021254824474453926, -0.0665435865521431, 0.12398616969585419, 0.055414263159036636, -0.10862773656845093, -0.01274306420236826, -0.038828294724226, 0.010031376965343952, -0.1328992247581482, -0.03410846367478371], [-0.06362314522266388, -0.1766352504491806, -0.10706127434968948, -0.07694920897483826, 0.006704092491418123, 0.06241290271282196, 0.039864037185907364, 0.0012580108596011996, -0.10470226407051086, -0.02125466987490654, -0.0625133216381073, -0.1484636515378952, -0.0691419392824173, 0.05171306058764458, -0.09016288816928864, -0.14438651502132416, -0.09787274897098541, -0.12739481031894684, -0.07825636118650436, 0.020958004519343376, -0.0028740456327795982, 0.10562971979379654, 0.021480826660990715, -0.08034373819828033, -0.07540909200906754, -0.1410592943429947, -0.09301725775003433, 0.033769190311431885, 0.10046402364969254, -0.12215887755155563, 0.10311533510684967, 0.02287033200263977, -0.021386904641985893, 0.08757447451353073, 0.0474100261926651, -0.10961655527353287, -0.07715266197919846, 0.011805546469986439, -0.1587047278881073, -0.05420244112610817, 0.07576974481344223, 0.0401054248213768, -0.1331387758255005, -0.10441868752241135, -0.1583757996559143, -0.05593690648674965, 0.013519770465791225, -0.016939334571361542, 0.10805372148752213, 0.07952260226011276, 0.03212469071149826, -0.15377336740493774, -0.1485777348279953, -0.07476931065320969, -0.1618964970111847, 0.07014646381139755, -0.04647363722324371, -0.06039295718073845, -0.04054974392056465, -0.095559261739254, 0.1170930340886116, 0.026748396456241608, 0.10294848680496216, -0.015146860852837563, -0.07109586894512177, -0.021788960322737694, -0.005011655390262604, 0.03343970328569412, 0.030137915164232254, 0.027173731476068497, 0.0907617136836052, 0.04308047890663147, 0.007194461766630411, -0.0645204558968544, -0.09556365758180618, -0.02812039479613304, -0.05456557869911194, 0.005890924949198961, 0.07869049906730652, 0.11995571106672287, 0.08353668451309204, -0.03225574642419815, -0.08694228529930115, -0.03317076712846756, 0.03656315430998802, 0.03512537479400635, 0.11538767069578171, -0.09001486003398895, 0.08100643008947372, -0.030172882601618767, 0.11349865794181824, -0.027350619435310364, 0.10952673852443695, -0.09371266514062881, 0.18173399567604065, -0.037792008370161057, 0.16058611869812012, -0.1008419468998909, -0.14051394164562225, 0.1591724455356598, 0.011749698780477047, 0.1135573610663414, -0.11633475869894028, 0.09560928493738174, -0.11464613676071167, 0.08641503751277924, 0.06695873290300369, -0.09609031677246094, 0.02692156471312046, 0.10161896049976349, -0.013399011455476284, 0.07726891338825226, -0.13631899654865265, -0.0008457415970042348, -0.0813341736793518, 0.04283858835697174, -0.051034171134233475, -0.08959066867828369, 0.08507374674081802, 0.024159003049135208, 0.062319669872522354, -0.0064969174563884735, -0.002736989175900817, -0.00047401621122844517, 0.0470421276986599, -0.02609112858772278, 0.0879247635602951, -0.11297328770160675], [0.039346832782030106, 0.04258507490158081, -0.12255623191595078, 0.1907268762588501, -0.10585150867700577, -0.08336909115314484, -0.05440191552042961, 0.1669299453496933, 0.009523911401629448, -0.0334993377327919, 0.07326196879148483, -0.13132408261299133, 0.12009624391794205, -0.002267371164634824, -0.04101243242621422, -0.0494980588555336, -0.09491148591041565, -0.04197464510798454, -0.13218003511428833, 0.0914575383067131, 0.17290787398815155, 0.0010183175327256322, 0.18344736099243164, -0.030865974724292755, -0.024912863969802856, 0.013381117954850197, -0.08398491144180298, -0.054247207939624786, 0.11135578900575638, -0.152470201253891, 0.010464413091540337, 0.07556606084108353, 0.10320094227790833, -0.07238712161779404, 0.042394984513521194, 0.0732722356915474, 0.1860676258802414, -0.09199786931276321, -0.0918022096157074, -0.01125203724950552, 0.14333556592464447, 0.12555862963199615, 0.10752525180578232, 0.032408952713012695, 0.12661400437355042, 0.12587018311023712, 0.1318829506635666, 0.017280124127864838, -0.02395619824528694, -0.01601717621088028, -0.1510278433561325, 0.009340159595012665, -0.05581920966506004, 0.0932195782661438, -0.174932062625885, -0.03738173097372055, -0.12017545849084854, -0.01878933608531952, -0.10357579588890076, 0.04268499091267586, -0.15980249643325806, 0.08137211203575134, 0.10611648112535477, 0.05891191214323044, 0.039909105747938156, -0.10596498101949692, -0.006244962569326162, 0.1243489533662796, -0.12671123445034027, 0.14349396526813507, 0.1370324194431305, 0.09105874598026276, -0.012714230455458164, 0.10770568251609802, 0.16734112799167633, -0.15035036206245422, -0.0120559586212039, 0.0529908612370491, -0.041519422084093094, -0.07532163709402084, -0.04899406060576439, 0.041491296142339706, -0.030604075640439987, -0.0577850341796875, -0.10951097309589386, 0.12712468206882477, 0.007195764221251011, 0.1554332971572876, 0.04862624406814575, 0.15635539591312408, -0.1485559046268463, -0.028996052220463753, -0.028758322820067406, -0.06448343396186829, -0.020400384441018105, -0.0998811423778534, 0.14700135588645935, -0.08175192028284073, -0.17628701031208038, -0.10371027141809464, -0.0852733850479126, 0.014770840294659138, 0.01435003336519003, 0.05185803398489952, 0.06301094591617584, 0.007289727684110403, -0.11435240507125854, 0.03275157883763313, 0.008483892306685448, 0.08195462822914124, 0.04180304706096649, 0.1906690001487732, -0.015244663693010807, 0.10695355385541916, -0.0403641015291214, 0.16293305158615112, 0.09296070784330368, 0.07147032022476196, -0.10593115538358688, -0.11006972193717957, 0.10369689017534256, -0.16508173942565918, 0.09540543705224991, 0.1192973330616951, 0.1566985547542572, 0.14946436882019043, 0.08642514795064926, -0.15523876249790192], [0.0720411017537117, -0.12846319377422333, -0.1643846482038498, -0.11992844194173813, -0.08432379364967346, 0.10287964344024658, 0.04584188759326935, -0.05139379948377609, -0.08531881868839264, 0.07763305306434631, -0.04735150560736656, 0.0668320283293724, 0.05045399069786072, -0.01892869360744953, 0.02281245030462742, 0.06336904317140579, 0.009679919108748436, 0.07743129134178162, 0.08490772545337677, -0.01687784306704998, 0.18108856678009033, -0.18945710361003876, 0.06684229522943497, 0.07022785395383835, 0.07434502989053726, -0.03615722432732582, -0.03434880077838898, -0.00654872739687562, -0.12040048092603683, -0.014453689567744732, -0.20750409364700317, 0.02616811916232109, -0.08970411121845245, -0.1856791228055954, -0.12109968811273575, -0.08144602924585342, 0.16192208230495453, -0.10135328769683838, 0.05798429623246193, 0.16934475302696228, 0.05627543479204178, -0.06462883204221725, 0.12836860120296478, -0.19759365916252136, -0.0003428173658903688, -0.07555016130208969, -0.16538287699222565, 0.07973842322826385, 0.17718541622161865, 0.07585304975509644, -0.1456669121980667, 0.04588497430086136, -0.10230974107980728, -0.001646548043936491, 0.08002275228500366, 0.15212073922157288, -0.07686249166727066, -0.16496393084526062, -0.14247433841228485, -0.10830365121364594, -0.16134034097194672, -0.10113155841827393, 0.1262267380952835, 0.0028229178860783577, 0.11012043803930283, 0.10032819956541061, -0.04738815128803253, 0.080853171646595, -0.15259309113025665, -0.01919287070631981, 0.03738565370440483, -0.05371075123548508, 0.12693804502487183, 0.18724989891052246, -0.008885381743311882, -0.036569856107234955, 0.03869534283876419, -0.007793651893734932, -0.08081859350204468, -0.024036891758441925, 0.06638489663600922, -0.05691858381032944, 0.16048358380794525, 0.0675392746925354, 0.013093859888613224, 0.07585511356592178, -0.08286349475383759, 0.018466787412762642, 0.12612107396125793, 0.10992361605167389, -0.15887495875358582, 0.06385073810815811, -0.010089825838804245, -0.005857904441654682, 0.17957939207553864, 0.01888362504541874, -0.04220690578222275, -0.2048102170228958, -0.12961819767951965, -0.10618337243795395, 0.05254280939698219, 0.10000547766685486, 0.12479216605424881, -0.012756039388477802, -0.16647566854953766, 0.11972637474536896, -0.0019816961139440536, 0.1633496880531311, 0.11046992987394333, 0.05307565629482269, 0.1362033188343048, 0.16042843461036682, -0.07424259930849075, -0.0037043357733637094, -0.10601258277893066, -0.08436624705791473, -0.19285540282726288, -0.12292774021625519, 0.15945681929588318, 0.05781669169664383, 0.0027199629694223404, 0.07316374778747559, 0.04835701361298561, 0.005280646029859781, 0.036826394498348236, 0.057712070643901825, -0.03285735100507736, 0.14205604791641235], [0.180148646235466, -0.1900714784860611, -0.15964803099632263, 0.0745500922203064, 0.07899339497089386, 0.14903850853443146, 0.1801067441701889, 0.011730005033314228, 0.04604477062821388, 0.07457739114761353, -0.09324536472558975, -0.18175745010375977, 0.09662456065416336, -0.19099090993404388, 0.059346843510866165, -0.07027749717235565, -0.02864709496498108, -0.016515839844942093, -0.13012900948524475, 0.02843143790960312, 0.15407593548297882, -0.0556216835975647, 0.012978712096810341, -0.11678443104028702, -0.10593558102846146, -0.16564035415649414, 0.011714802123606205, -0.1332790106534958, 0.05580827221274376, 0.05861068144440651, -0.1488538682460785, 0.14574794471263885, 0.09917913377285004, -0.11539091169834137, -0.027645835652947426, 0.16194851696491241, -0.011202040128409863, -0.09085630625486374, 0.0007827632944099605, 0.15554675459861755, 0.06763496994972229, -0.09381915628910065, 0.009581327438354492, -0.049733716994524, -0.030255695804953575, -0.11337650567293167, -0.08238276094198227, 0.10217179358005524, 0.0712345764040947, 0.043837618082761765, -0.14311157166957855, -0.081185482442379, 0.038404930382966995, -0.15682218968868256, -0.15780258178710938, -0.0503448061645031, 0.12771722674369812, 0.05506480485200882, -0.10982224345207214, -0.13213272392749786, -0.09257320314645767, -0.0428566075861454, 0.07160451263189316, -0.01934109814465046, 0.1801903247833252, -0.038121916353702545, 0.0361667275428772, -0.19133125245571136, 0.09602981805801392, 0.10398467630147934, -0.13716700673103333, 0.04167105257511139, 0.10983068495988846, 0.1354478895664215, -0.04085904732346535, -0.19537833333015442, -0.07980801165103912, -0.0957648903131485, 0.044191356748342514, 0.022564569488167763, -0.13434357941150665, 0.0999758243560791, -0.010555427521467209, -0.11887519061565399, 0.01425623707473278, -0.018079491332173347, 0.01674637198448181, 0.170986607670784, -0.1545373946428299, -0.023966442793607712, -0.17861664295196533, 0.063828244805336, -0.0314328633248806, 0.04384637996554375, 0.12556979060173035, 0.013361390680074692, 0.17567218840122223, -0.03129502385854721, -0.09268222749233246, -0.09829571098089218, 0.07884882390499115, 0.09229888767004013, -0.14846588671207428, 0.1353653073310852, 0.013526981696486473, -0.07035627216100693, 0.016106978058815002, -0.02248411439359188, -0.08765719085931778, 0.16841259598731995, 0.11443155258893967, 0.09010453522205353, -0.006089775823056698, 0.12689511477947235, -0.047868985682725906, -0.09621237218379974, 0.021052202209830284, -0.10611188411712646, 0.13548895716667175, 0.13347947597503662, 0.10410500317811966, -0.1580277383327484, 0.0860946998000145, 0.1162228137254715, 0.18691486120224, 0.17313691973686218, -0.08770053088665009, 0.10233139246702194], [0.10925361514091492, 0.023525845259428024, 0.0997990071773529, -0.18539831042289734, 0.0024037163238972425, -0.137948140501976, -0.15026946365833282, 0.049090251326560974, 0.07518958300352097, -0.11904416978359222, 0.007075535599142313, 0.09849654883146286, -0.0005805010441690683, -0.1321316510438919, 0.1059386134147644, -0.0010189517633989453, 0.015473383478820324, -0.046633679419755936, -0.11129163205623627, 0.01867576315999031, -0.12436434626579285, 0.007421424146741629, 0.09772435575723648, -0.00454322574660182, -0.14045612514019012, -0.20643256604671478, -0.15058797597885132, 0.024245792999863625, -0.11215522140264511, -0.07885011285543442, -0.0639326348900795, -0.12441307306289673, -0.10114254802465439, -0.08585470169782639, -0.13036011159420013, -0.08740085363388062, -0.012614907696843147, -0.01358094997704029, 0.03407178819179535, 0.0812222883105278, -0.12733927369117737, 0.10110432654619217, -0.1719241887331009, 0.09254244714975357, -0.10512750595808029, 0.009226879104971886, 0.13959957659244537, 0.07109426707029343, 0.09838499873876572, 0.04849855601787567, -0.0012057480635121465, -0.10386807471513748, -0.038605090230703354, -0.16251270473003387, 0.12603624165058136, -0.10606187582015991, -0.11579962074756622, -0.1021604910492897, -0.15302449464797974, -0.08033841103315353, 0.10361029207706451, 0.10122960060834885, -0.19146797060966492, -0.03745488077402115, 0.0024871411733329296, 0.11518903821706772, 0.0005328391562215984, 0.04825477674603462, -0.012850112281739712, -0.1847984343767166, 0.06301435828208923, 0.107349693775177, 0.04710811376571655, -0.05897295102477074, -0.12880605459213257, -0.09182170033454895, -0.15990756452083588, -0.05834842100739479, -0.015752341598272324, 0.03602606803178787, -0.09139132499694824, -0.08548005670309067, -0.13491220772266388, -0.11276373267173767, -0.18638262152671814, -0.16458313167095184, -0.18188884854316711, -0.1249769926071167, -0.03716958314180374, -0.1541450172662735, 0.14295057952404022, -0.0011974177323281765, -0.18993191421031952, -0.0982215628027916, -0.01872824691236019, -0.193960502743721, -0.12905572354793549, -0.03989969193935394, 0.08561435341835022, 0.03260412812232971, 0.08479152619838715, 0.07147480547428131, -0.05285501852631569, -0.11289418488740921, 0.08354093134403229, -0.08657153695821762, 0.051348861306905746, -0.02900884672999382, -0.07890887558460236, -0.17657652497291565, 0.05442202091217041, -0.04017109051346779, 0.14404147863388062, -0.16429494321346283, -0.1076943427324295, 0.07152701169252396, -0.08838382363319397, -0.13810646533966064, -0.18982762098312378, 0.1453884392976761, 0.12207049876451492, -0.04102005809545517, -0.1607208400964737, -0.06897012144327164, 0.10578011721372604, -0.1392994225025177, -0.05431076139211655, -0.10100570321083069], [-0.003047423902899027, 0.05809386447072029, -0.010437949560582638, 0.012624627910554409, -0.003071592655032873, -0.060722291469573975, 0.18317048251628876, 0.09667352586984634, 0.032678473740816116, 0.08160888403654099, -0.06500274688005447, -0.004199167713522911, 0.08668956905603409, -0.08825401961803436, 0.04139156639575958, -0.10237431526184082, -0.19479410350322723, -0.016459142789244652, -0.06259411573410034, 0.10959362238645554, -0.07102308422327042, -0.106828473508358, -0.03370697796344757, -0.1191045269370079, -0.030953485518693924, -0.17060339450836182, -0.03217700496315956, 0.10000903904438019, 0.11423275619745255, -0.009613883681595325, -0.13329502940177917, 0.028881296515464783, 0.022022226825356483, -0.08826062828302383, -0.17899231612682343, 0.034806448966264725, 0.07765665650367737, 0.11553271114826202, 0.05076262354850769, 0.07478487491607666, 0.10003636032342911, -0.01660909503698349, 0.03062177076935768, -0.10505551099777222, -0.052515286952257156, -0.20378762483596802, -0.04976249113678932, 0.049899715930223465, -0.0519707128405571, -0.11649836599826813, -0.1516612470149994, -0.13163235783576965, -0.01415214128792286, -0.027301203459501266, -0.16864949464797974, 0.12759490311145782, -0.01464993879199028, -0.03194793313741684, -0.13082556426525116, -0.06283239275217056, -0.07103434205055237, -0.08627092838287354, 0.16877010464668274, 0.13181869685649872, -0.06959697604179382, 0.027767769992351532, -0.04471787437796593, -0.04988555237650871, -0.044657547026872635, 0.11276132613420486, 0.07800237089395523, -0.1420063078403473, 0.11917132884263992, 0.0033002416603267193, 0.08302270621061325, -0.12965959310531616, 0.19388729333877563, 0.04675094410777092, -0.09171412140130997, 0.1609644591808319, 0.03223111107945442, 0.10801318287849426, 0.02174660563468933, -0.15483742952346802, 0.0006552335689775646, -0.055336255580186844, 0.10169042646884918, 0.17637233436107635, 0.11885190010070801, 0.16017261147499084, -0.03916490823030472, -0.022890225052833557, 0.1343614012002945, 0.026893846690654755, -0.021262317895889282, 0.07762692868709564, 0.08561430871486664, -0.014690345153212547, 0.00626936974003911, 0.06923016160726547, 0.02034584991633892, 0.020739637315273285, 0.13979221880435944, -0.09581758081912994, -0.04946735128760338, -0.05653933063149452, 0.024204982444643974, -0.019902514293789864, 0.04733574762940407, 0.1846114844083786, 0.18141235411167145, 0.14464981853961945, -0.10205996036529541, 0.058003220707178116, -0.11259933561086655, -0.07719027251005173, -0.005705562420189381, 0.0476374551653862, 0.009059226140379906, -0.13631218671798706, -0.1780678629875183, -0.010936735197901726, -0.010523793287575245, -0.05642818659543991, -0.031078707426786423, -0.01229182444512844, -0.19369469583034515, -0.08370696753263474], [-0.098105289041996, 0.15035216510295868, 0.1311100870370865, 0.019877314567565918, -0.12685748934745789, -0.059503521770238876, -0.10629679262638092, -0.11160726100206375, -0.025556335225701332, -0.050029072910547256, 0.0652868002653122, 0.07600121200084686, -0.08034566789865494, 0.078144371509552, 0.06982075423002243, -0.09559063613414764, -0.01209742110222578, -0.09381154924631119, -0.07761498540639877, -0.18276582658290863, -0.11266783624887466, 0.05889062583446503, 0.0350758321583271, -0.056280527263879776, -0.09868022799491882, -0.030883537605404854, 0.03189878165721893, -0.061006031930446625, -0.17076584696769714, 0.17604219913482666, 0.10812855511903763, -0.03225988149642944, -0.08133148401975632, -0.08458374440670013, -0.03500523790717125, -0.04771484434604645, -0.11786672472953796, -0.08843416720628738, 0.13271938264369965, 0.021835824474692345, -0.07093426585197449, 0.008637773804366589, 0.05003076791763306, 0.05484500527381897, -0.07353531569242477, 0.051326554268598557, 0.019138069823384285, -0.13969910144805908, -0.07445267587900162, -0.05330962315201759, 0.132297083735466, -0.05491824075579643, 0.1786787211894989, -0.010927857831120491, 0.14727379381656647, -0.13783203065395355, 0.14572638273239136, 0.024725912138819695, 0.11614225059747696, 0.09219726920127869, 0.057482246309518814, 0.05791386216878891, -0.17689859867095947, -0.13237787783145905, -0.16128911077976227, 0.0051773651503026485, 0.03330240398645401, -0.026230648159980774, 0.04361880570650101, 0.05799279361963272, 0.16041813790798187, 0.12588158249855042, 0.05944325029850006, 0.04468366131186485, 0.036839596927165985, 0.0719897598028183, 0.0412914901971817, -0.14195722341537476, -0.012330873869359493, -0.09937562048435211, -0.0661458745598793, 0.025340070948004723, -0.13924247026443481, 0.00018922417075373232, -0.17445772886276245, -0.17403526604175568, 0.034265004098415375, -0.026272794231772423, 0.13757874071598053, -0.001273325877264142, 0.18936480581760406, 0.009983512572944164, 0.027493424713611603, -0.1656493842601776, -0.05490195378661156, 0.07535523921251297, 0.04331288859248161, -0.018808888271450996, -0.020266244187951088, 0.014222245663404465, -0.14086183905601501, -0.19291909039020538, 0.12052583694458008, -0.055048223584890366, 0.08857578039169312, 0.08051806688308716, -0.18140818178653717, 0.052002813667058945, -0.059860214591026306, -0.12302273511886597, -0.13212476670742035, 0.03223070129752159, 0.00622903136536479, -0.001907580648548901, 0.1439419686794281, 0.023230794817209244, 0.18769702315330505, 0.06298964470624924, -0.17618463933467865, -0.11561539024114609, 0.0302696842700243, 0.010983825661242008, -0.03961842879652977, 0.03452914580702782, -0.1320772022008896, -0.159529909491539, -0.037328146398067474, -0.10120189934968948], [0.1529688537120819, -0.03581611067056656, 0.03974165767431259, 0.049473486840724945, 0.06751902401447296, -0.02311805635690689, 0.02577080763876438, 0.09069468080997467, 0.03929677605628967, -0.01460621040314436, -0.028501510620117188, -0.11227674037218094, 0.08929165452718735, -0.07185825705528259, -0.10895130038261414, -0.1004425659775734, -0.0693979263305664, -0.08822739124298096, 0.021287918090820312, -0.09342581778764725, 0.15496255457401276, -0.03179924562573433, 0.1424698531627655, -0.10339634865522385, -0.005813737399876118, -0.04909978061914444, -0.14188560843467712, -0.053321681916713715, 0.007163565140217543, -0.06416482478380203, 0.11340535432100296, 0.02938249334692955, 0.09118487685918808, -0.14499503374099731, -0.03882196918129921, 0.08923790603876114, -0.032195813953876495, 0.05570436269044876, -0.05927570164203644, -0.012767751701176167, 0.12050841003656387, 0.13459070026874542, 0.07859572768211365, 0.007406718097627163, -0.1588601917028427, -0.18785583972930908, 0.09972330182790756, 0.11182989925146103, -0.05322972312569618, -0.12735220789909363, 0.08698003739118576, -0.13222484290599823, -0.09093668311834335, -0.10137133300304413, -0.04092315584421158, 0.12831537425518036, 0.02251805178821087, 0.037376757711172104, 0.05863294005393982, -0.1159638911485672, -0.037366896867752075, 0.059098463505506516, -0.06110915541648865, -0.10839539021253586, -0.04464728757739067, -0.14876174926757812, 0.04990115389227867, -0.14756479859352112, -0.12676198780536652, 0.08466837555170059, 0.13368047773838043, -0.142302468419075, -0.14702902734279633, -0.06553032994270325, 0.1005871593952179, 0.10783128440380096, -0.02728116512298584, -0.07234968990087509, 0.02581338956952095, -0.09728716313838959, -0.010170926339924335, 0.048395510762929916, -0.09954901039600372, 0.08107888698577881, 0.18753941357135773, 0.08315040171146393, 0.13480499386787415, 0.15265926718711853, 0.10279173403978348, 0.05879829823970795, 0.04309404268860817, -0.1051836758852005, -0.08151896297931671, -0.07561108469963074, 0.18703751266002655, 0.05491771548986435, 0.14914841949939728, -0.1478838175535202, 0.04268239066004753, 0.1363285332918167, -0.06515020877122879, -0.05907009541988373, 0.09263048321008682, 0.05214953050017357, -0.09804762899875641, 0.04286866635084152, -0.059272650629282, -0.020216625183820724, 0.14862996339797974, 0.06791207194328308, 0.18031620979309082, -0.12335711717605591, -0.04117580130696297, -0.06959393620491028, -0.052203468978405, 0.12953148782253265, 0.08431769162416458, -0.1297794133424759, -0.04441465809941292, 0.06759778410196304, -0.11921411007642746, 0.04270659387111664, 0.11295044422149658, -0.01604539155960083, 0.15091179311275482, -0.07508231699466705, 0.00610707001760602, -0.06295841932296753], [-0.06626752018928528, -0.10112004727125168, -0.040969233959913254, -0.05287209153175354, 0.055105604231357574, -0.18779948353767395, -0.1559813916683197, -0.0363142155110836, -0.04825810343027115, 0.0829174667596817, 0.03676578775048256, 0.012338332831859589, -0.02924865484237671, -0.12074358761310577, -0.05154905840754509, 0.043812111020088196, -0.016184018924832344, 0.04960634559392929, 0.15117493271827698, -0.172256201505661, -0.04092531278729439, -0.13201846182346344, 0.008785533718764782, -0.04336201772093773, 0.08512910455465317, -0.1885509192943573, 0.11643111705780029, 0.10173730552196503, -0.17121952772140503, -0.00726622249931097, -0.11854704469442368, -0.16744521260261536, 0.10010401159524918, 0.015223272144794464, -0.0809716060757637, 0.033832091838121414, 0.1059986799955368, -0.11597927659749985, 0.09016495943069458, -0.0701584666967392, -0.09437746554613113, -0.10886219143867493, -0.004672917537391186, 0.0005355984903872013, -0.12496262043714523, 0.0368146076798439, -0.039139822125434875, -0.11937931180000305, -0.11556927114725113, 0.06381817907094955, 0.10313070565462112, 0.03943045064806938, 0.12026453018188477, -0.0580584853887558, -0.05694480240345001, -0.028490517288446426, -0.16411830484867096, 0.049139849841594696, 0.09669428318738937, -0.04435493052005768, -0.04828725755214691, -0.012378312647342682, -0.1786803901195526, -0.010059344582259655, -0.054215557873249054, 0.07136555761098862, 0.09455418586730957, -0.14663052558898926, 0.04953055828809738, -0.15982402861118317, -0.11052817851305008, -0.02785872295498848, -0.04869350418448448, -0.008329469710588455, 0.11238192021846771, 0.015189466997981071, -0.13389845192432404, -0.06920532882213593, -0.09641046822071075, -0.10866997390985489, -0.007017218042165041, -0.020695146173238754, 0.07352382689714432, 0.08057674765586853, 0.03398502990603447, -0.19553183019161224, -0.07112320512533188, 0.0289743784815073, -0.0538862906396389, -0.08420465886592865, 0.0007549903239123523, -0.006071749143302441, -0.16584305465221405, -0.07220395654439926, -0.11875772476196289, 0.01413208618760109, -0.05705244094133377, -0.018524637445807457, -0.028534505516290665, -0.051576726138591766, 0.10296997427940369, -0.036622270941734314, 0.06450498104095459, -0.09234379231929779, 0.06614312529563904, 0.10328834503889084, -0.029661033302545547, 0.023864949122071266, -0.18484313786029816, -0.015197906643152237, -0.07169701159000397, 0.10864262282848358, -0.02952236868441105, -0.0633009597659111, 0.1272864192724228, -0.18390774726867676, 0.017794866114854813, -0.08639252930879593, -0.07826326787471771, 0.1516566425561905, -0.05917451158165932, -0.08361511677503586, 0.027354838326573372, -0.09270759671926498, -0.12580673396587372, -0.09712712466716766, 0.10565603524446487, -0.0737539753317833], [0.16473256051540375, -0.09715546667575836, 0.10402379184961319, 0.1486804336309433, -0.005251728463917971, 0.15846708416938782, 0.118620865046978, 0.1626420021057129, -0.004671166185289621, -0.020205367356538773, -0.03132648393511772, 0.019538480788469315, -0.03197450190782547, -0.06777308881282806, 0.08092966675758362, -0.026881037279963493, -0.07814907282590866, -0.17793257534503937, -0.06963372230529785, -0.041044801473617554, -0.01981043629348278, 0.09891650080680847, 0.11173320561647415, 0.11136748641729355, -0.05623475834727287, -0.016687579452991486, 0.010753795504570007, -0.05219403654336929, 0.09620650857686996, 0.0465611070394516, 0.032884784042835236, 0.10927854478359222, 0.029116123914718628, -0.08011741191148758, -0.04865208640694618, 0.17088612914085388, -0.09226679801940918, -0.07511019706726074, 0.014966042712330818, 0.058309655636548996, -0.08483243733644485, -0.04322175309062004, 0.08043908327817917, -0.10791325569152832, 0.10943607240915298, -0.01635967381298542, -0.10536640882492065, -0.06457993388175964, 0.18848416209220886, 0.10816264897584915, -0.09655985981225967, 0.08206239342689514, -0.17180179059505463, -0.08544519543647766, 0.03559510037302971, -0.09300721436738968, -0.08704114705324173, 0.07592114061117172, -0.07988131046295166, -0.028691167011857033, 0.025624599307775497, 0.04564477130770683, 0.1865600198507309, 0.12475194036960602, 0.05807787552475929, 0.051171500235795975, -0.07691508531570435, -0.10146604478359222, -0.05194036662578583, -0.07636582851409912, -0.15456309914588928, -0.04956919699907303, 0.0859103873372078, 0.12908026576042175, 0.09782757610082626, -0.019484078511595726, 0.16452552378177643, 0.14086920022964478, -0.036354370415210724, 0.17113766074180603, 0.08092359453439713, 0.029073704034090042, 0.15922896564006805, 0.10922867059707642, -0.0039006934966892004, 0.01922759786248207, -0.03508291393518448, 0.07803288102149963, 0.15291786193847656, 0.19513234496116638, -0.07730066031217575, 0.12697409093379974, 0.11859782040119171, 0.16026471555233002, 0.01038840040564537, -0.09415774047374725, -0.08169480413198471, 0.025717562064528465, -0.09695202112197876, 0.17039574682712555, -0.030420895665884018, 0.08109153062105179, 0.11316295713186264, 0.20048882067203522, 0.13831715285778046, 0.008588651195168495, 0.09040429443120956, 0.16611258685588837, 0.10921064019203186, 0.062002092599868774, 0.11051596701145172, 0.19288235902786255, 0.07936379313468933, 0.0757586807012558, 0.1047302782535553, 0.07059334218502045, -0.08720020949840546, -0.04172723367810249, -0.09886835515499115, 0.11380738019943237, -0.14397309720516205, 0.023533858358860016, 0.0143447769805789, -0.06512051075696945, 0.024687375873327255, 0.0899314284324646, -0.09036514908075333, -0.05440954118967056], [-0.045825257897377014, 0.1462443768978119, 0.11536654829978943, 0.12081489711999893, -0.11907678842544556, 0.06225002929568291, 0.10304068773984909, -0.10952938348054886, 0.045068830251693726, -0.007838205434381962, 0.13256540894508362, -0.017689522355794907, 0.0903685912489891, -0.05323116481304169, 0.16723604500293732, 0.005628928542137146, -0.005989555735141039, 0.10052886605262756, 0.1323244720697403, -0.11975973844528198, 0.036728937178850174, 0.12086895108222961, -0.12199215590953827, 0.11822593212127686, 0.09127608686685562, 0.10014398396015167, 0.025886213406920433, 0.13413144648075104, -0.11084296554327011, 0.012730770744383335, 0.0264048520475626, -0.09276042133569717, -0.08058378845453262, 0.14734876155853271, 0.1410122811794281, 0.0036144282203167677, 0.052111923694610596, -0.10146702826023102, 0.084200419485569, -0.06446835398674011, -0.12210062146186829, 0.030195733532309532, 0.039895571768283844, 0.15600919723510742, 0.06401377171278, 0.07163343578577042, 0.1537638008594513, -0.16132411360740662, -0.0729696974158287, -0.047059834003448486, -0.01978345401585102, -0.05651414021849632, -0.02045985497534275, 0.052781470119953156, 0.09576501697301865, 0.1213182732462883, -0.045551497489213943, 0.10606501251459122, 0.11271771788597107, -0.09014906734228134, 0.1934630572795868, -0.12644413113594055, -0.02991221472620964, -0.08745666593313217, -0.11365291476249695, -0.049508992582559586, 0.11125209182500839, -0.04440134018659592, -0.061391621828079224, -0.1326729953289032, 0.11838071793317795, 0.06346935778856277, -0.05478157848119736, -0.18739989399909973, 0.1539933681488037, -0.1036192774772644, -0.13669739663600922, -0.18075981736183167, 0.01919172704219818, -0.07856740802526474, -0.08110262453556061, -0.004505121149122715, 0.10840672999620438, 0.17513222992420197, -0.017517421394586563, -0.1813834011554718, 0.09671536833047867, -0.11063704639673233, 0.016937443986535072, -0.1129489541053772, 0.09673121571540833, -0.07164406031370163, -0.012419178150594234, -0.17667695879936218, -0.11282794922590256, 0.060011621564626694, -0.006112649105489254, 0.0001865974481916055, 0.06789091974496841, -0.17422211170196533, -0.10754276067018509, 0.08431272953748703, 0.0458243153989315, 0.06280969828367233, 0.05341118574142456, -0.11486206203699112, -0.0008253398118540645, -0.026182856410741806, -0.17496992647647858, 0.127522274851799, -0.16611753404140472, -0.189737930893898, -0.09788623452186584, -0.0009556185686960816, 0.002315860241651535, -0.0052796886302530766, 0.05587783828377724, -0.1000928282737732, -0.05201851204037666, -0.1428106725215912, -0.06082237511873245, 0.0807538628578186, -0.1743626445531845, 0.12255925685167313, 0.09721595793962479, -0.1276952624320984, 0.14793679118156433, -0.09907663613557816], [0.004143293481320143, -0.13294656574726105, -0.038770947605371475, -0.18494181334972382, 0.10808536410331726, -0.1617286652326584, -0.15421058237552643, 0.09427156299352646, -0.010404504835605621, 0.06514902412891388, -0.038107383996248245, 0.03130834922194481, -0.013214816339313984, -0.055352166295051575, 0.03792954608798027, 0.02411681041121483, 0.08100026845932007, 0.04983510822057724, 0.13199368119239807, -0.06844030320644379, -0.031423646956682205, -0.16761571168899536, -0.025145966559648514, 0.08084248751401901, 0.023727212101221085, -0.18629644811153412, 0.07969814538955688, -0.01868489384651184, -0.053709812462329865, -0.15900768339633942, 0.04767856374382973, -0.02546980045735836, 0.08329957723617554, 0.09834504872560501, -0.1006363108754158, -0.10487034916877747, -0.1862674057483673, -0.07143354415893555, -0.023827744647860527, -0.07913418114185333, -0.14831583201885223, -0.06341055035591125, -0.09856685250997543, -0.015492893755435944, 0.05354160815477371, -0.027881691232323647, -0.05407510697841644, -0.06421288102865219, -0.01687563955783844, 0.11835135519504547, -0.005556612741202116, -0.14495177567005157, -0.07998307794332504, 0.02204785868525505, 0.029767172411084175, 0.0357058122754097, -0.12304089963436127, -0.06489244103431702, -0.06915479898452759, 0.007540627848356962, -0.1282704472541809, 0.08572585880756378, -0.00871624518185854, 0.095566026866436, 0.012851422652602196, -0.08482954651117325, -0.1068519800901413, -0.16773399710655212, -0.0028087960090488195, 0.027922945097088814, -0.04572216793894768, -0.10953710973262787, -0.06861740350723267, 0.004023134708404541, -0.10130917280912399, 0.11117152869701385, 0.042006030678749084, -0.11927635967731476, -0.07859326153993607, -0.1718599796295166, -0.05405708774924278, 0.06230393424630165, 0.02655860222876072, -0.021936075761914253, 0.05063238739967346, 0.04775562509894371, -0.03095722384750843, -0.03477107360959053, -0.0534508116543293, -0.056011397391557693, 0.05865705758333206, -0.1281680464744568, -0.03769027814269066, -0.0829547718167305, 0.02251274883747101, -0.14285346865653992, 0.053874671459198, 0.07503470778465271, 0.09642300754785538, -0.1301524043083191, -0.09043141454458237, -0.1215420737862587, -0.07296168059110641, -0.09424856305122375, 0.050325311720371246, -0.022149797528982162, -0.011736315675079823, 0.11573377251625061, -0.024715101346373558, -0.15341202914714813, 0.00523057347163558, -0.17329759895801544, -0.01772047020494938, 0.05952145904302597, -0.07870443165302277, -0.019556622952222824, -0.04312964528799057, -0.15007680654525757, -0.173481285572052, -0.045003216713666916, -0.059866853058338165, 0.00899436790496111, -0.036565907299518585, 0.01641460880637169, -0.14395777881145477, 0.029398471117019653, -0.052414629608392715, 0.07297417521476746], [-0.07952930778265, 0.09533023089170456, -0.019605955109000206, 0.16648639738559723, -0.05967001989483833, 0.060843829065561295, 0.01182727050036192, -0.0362265408039093, -0.055494170635938644, -0.07181006669998169, -0.09151524305343628, 0.004358391743153334, 0.057479966431856155, 0.20545083284378052, 0.1347268670797348, -0.03476984426379204, -0.07173323631286621, -0.07295192778110504, -0.11378326267004013, 0.11310382932424545, 0.10967754572629929, 0.17381411790847778, -0.06544115394353867, 0.07902214676141739, 0.15647776424884796, -0.016732389107346535, 0.1543334275484085, -0.09596754610538483, -0.07530459016561508, 0.007819625549018383, 0.011430392973124981, 0.16077570617198944, -0.10308083146810532, 0.18526563048362732, 0.1246478408575058, 0.1596488505601883, 0.17417298257350922, 0.11971883475780487, 0.08916494995355606, 0.10489944368600845, -0.11294595152139664, -0.09453446418046951, 0.10888462513685226, 0.1418645977973938, 0.16903148591518402, 0.15408384799957275, 0.030201653018593788, 0.18843670189380646, -0.09799323230981827, -0.11254235357046127, 0.1368047595024109, -0.024940231814980507, 0.030385252088308334, 0.03690836578607559, 0.027787089347839355, -0.017087316140532494, 0.08930280059576035, 0.05046127364039421, -0.06485829502344131, -0.06700804084539413, 0.02961629070341587, -0.009407288394868374, 0.08289124071598053, 0.035997651517391205, 0.009361366741359234, 0.05033738911151886, 0.019984742626547813, 0.12107627093791962, 0.16500474512577057, 0.0861118882894516, -0.06751694530248642, -0.023069696500897408, -0.08075892180204391, 0.10247776657342911, 0.08877366036176682, -0.016007430851459503, 0.025418121367692947, -0.05482146888971329, -0.046970851719379425, 0.10581599920988083, 0.19173355400562286, 0.10915813595056534, 0.1491767317056656, -0.06449571251869202, 0.150481179356575, 0.09853455424308777, -0.02401360683143139, 0.08180360496044159, -0.0198497511446476, 0.06631053239107132, 0.05062850937247276, -0.06365300714969635, 0.11260256171226501, -0.051611240953207016, 0.18892617523670197, -0.05146844685077667, 0.12871338427066803, 0.10707743465900421, 0.15839146077632904, -0.016323044896125793, 0.08591178059577942, 0.15834473073482513, 0.08285423368215561, 0.15241776406764984, 0.15915708243846893, -0.013485870324075222, -0.07571925967931747, 0.18450255692005157, 0.06237315759062767, 0.17946025729179382, -0.007790836971253157, -0.039903510361909866, -0.015238476917147636, 0.1102626696228981, -0.02405477501451969, 0.11065737158060074, 0.11889686435461044, -0.12923279404640198, -0.07214127480983734, 0.09903824329376221, 0.03134599328041077, -0.019143972545862198, 0.056558720767498016, 0.09443393349647522, -0.09638472646474838, 0.05779000744223595, 0.17292173206806183, -0.14200086891651154], [-0.03989666700363159, -0.10038897395133972, 0.05836948752403259, 0.04912012815475464, 0.10220438241958618, -0.029413659125566483, -0.018823709338903427, -0.02214982733130455, 0.08230055868625641, 0.06532971560955048, -0.07416892051696777, 0.12115639448165894, 0.13828496634960175, -0.03183937072753906, -0.0643642246723175, 0.036193229258060455, 0.03154812380671501, -0.09701695293188095, 0.09956970810890198, 0.13258002698421478, -0.12116806209087372, 0.07897408306598663, -0.04349764436483383, -0.10595060139894485, 0.007576146628707647, 0.06050477921962738, 0.03800807148218155, -0.03783146291971207, 0.025104844942688942, 0.09276078641414642, -0.02306731976568699, 0.07937369495630264, 0.0658060610294342, 0.033738672733306885, -0.16250671446323395, 0.04606277495622635, 0.05715278908610344, 0.1338644027709961, -0.08273818343877792, -0.013401378877460957, -0.022409824654459953, -0.14007793366909027, 0.05945233255624771, 0.05957311391830444, -0.07927221059799194, 0.052929431200027466, -0.15610043704509735, -0.04161159321665764, 0.14086799323558807, -0.13918745517730713, -0.028517799451947212, 0.0765354335308075, -0.06366293132305145, -0.14403770864009857, 0.0421796478331089, -0.0446653850376606, -0.08426782488822937, -0.06818414479494095, -0.0841015875339508, -0.11427772790193558, 0.03715090453624725, -0.06032373011112213, 0.1800442785024643, 0.03805490583181381, -0.06573765724897385, -0.13643930852413177, 0.14982075989246368, -0.05867985263466835, -0.044271595776081085, 0.16416440904140472, -0.062407929450273514, 0.11437465250492096, -0.11772482842206955, 0.026067962870001793, 0.1230088621377945, -0.13659054040908813, 0.18088558316230774, 0.14268046617507935, -0.028154028579592705, 0.11840658634901047, 0.027665462344884872, 0.1580783724784851, 0.1714751124382019, 0.05235955864191055, -0.10634974390268326, -0.052556078881025314, 0.13958019018173218, 0.17095832526683807, -0.09730319678783417, 0.0052169556729495525, -0.006339412648230791, -0.07980608940124512, 0.0775541365146637, 0.08857207000255585, 0.13413748145103455, 0.0826110914349556, -0.08025900274515152, 0.06527461111545563, -0.08287333697080612, 0.024539044126868248, -0.011087981052696705, -0.006731751840561628, -0.08927891403436661, 0.13006272912025452, 0.12143899500370026, 0.1359560787677765, -0.09841906279325485, 0.18593047559261322, -0.1019037514925003, 0.1552359014749527, -0.05998777225613594, -0.03656943142414093, 0.05160754546523094, 0.09813026338815689, -0.05644739419221878, 0.15121854841709137, -0.10055166482925415, -0.02294480986893177, -0.002991818357259035, 0.008702992461621761, -0.14257019758224487, -0.10911212116479874, 0.07893717288970947, -0.05338646471500397, 0.0226940605789423, 0.11496958136558533, -0.06172866374254227, -0.05766179412603378], [-0.028960106894373894, -0.04169042408466339, -0.026666682213544846, -0.1082107424736023, 0.15374532341957092, -0.137499138712883, -0.06516256928443909, 0.11780129373073578, -0.12443110346794128, -0.06516802310943604, 0.013682636432349682, -0.09406062215566635, 0.005004425998777151, -0.1430927813053131, -0.15357449650764465, 0.03476332500576973, 0.026328852400183678, -0.07798334956169128, -0.07327237725257874, -0.04652317985892296, 0.027558447793126106, -0.11037324368953705, 0.11326832324266434, -0.12721623480319977, -0.01047181524336338, 0.0215925183147192, -0.028500227257609367, -0.05576873943209648, -0.08108430355787277, -0.18257559835910797, -0.08293027430772781, -0.15798114240169525, -0.19239716231822968, 0.10419831424951553, -0.02821628376841545, -0.017309226095676422, -0.15815861523151398, 0.11956960707902908, 0.0659453496336937, -0.024935858324170113, -0.10771370679140091, -0.04813019558787346, 0.012101157568395138, 0.06823144108057022, 0.02473968267440796, -0.18887755274772644, -0.10179871320724487, -0.11957166343927383, -0.1705406755208969, 0.04846442863345146, 0.07760510593652725, -0.16110502183437347, 0.05326520651578903, -0.1654902845621109, -0.05543380603194237, -0.04549039155244827, 0.044452909380197525, -0.002609552349895239, -0.06858626753091812, 0.1157020628452301, -0.042971234768629074, -0.050019726157188416, -0.16039952635765076, -0.07427921146154404, -0.05981002002954483, 0.06272105872631073, -0.08080017566680908, -0.18813903629779816, -0.07078027725219727, -0.16190579533576965, 0.1254609078168869, 0.037440940737724304, -0.039078857749700546, -0.14084979891777039, -7.370454841293395e-05, -0.16037432849407196, -0.06785159558057785, -0.08234585076570511, 0.12850655615329742, 0.07210327684879303, -0.05712534859776497, -0.031568173319101334, 0.07379181683063507, -0.10020951181650162, -0.12635661661624908, 0.04208362475037575, 0.05050918832421303, 0.028425706550478935, 0.08593805879354477, -0.0024888464249670506, -0.11427334696054459, 0.04834907129406929, -0.06752767413854599, -0.10123421996831894, 0.09507274627685547, -0.10700367391109467, -0.07138524949550629, 0.0041176737286150455, 0.053066056221723557, -0.09767672419548035, 0.0816657692193985, -0.055198345333337784, 0.03280259296298027, -0.10609541088342667, -0.17775394022464752, -0.02060490846633911, -0.14460286498069763, -0.08669068664312363, 0.12499745190143585, -0.11463480442762375, 0.05201005935668945, -0.007620871067047119, -0.17373228073120117, -0.14609795808792114, -0.016148919239640236, -0.16021689772605896, 0.03246690332889557, -0.02057068608701229, 0.03571510687470436, 0.06716719269752502, 0.017559977248311043, -0.062326304614543915, -0.09599318355321884, -0.03292066603899002, -0.06891129165887833, 0.012785187922418118, 0.02610541135072708, 0.11403903365135193], [0.045625995844602585, -0.033313263207674026, -0.09016582369804382, 0.04649510234594345, -0.0683441236615181, 0.10251215845346451, -0.06029969081282616, -0.11313589662313461, 0.0746074691414833, -0.12337565422058105, -0.020779423415660858, -0.09761454164981842, 0.05471199005842209, -0.09056021273136139, 0.05728309974074364, 0.08030075579881668, -0.15807601809501648, -0.1329663097858429, 0.0881391242146492, 0.013282764703035355, -0.029809972271323204, -0.0869913175702095, 0.15183685719966888, 0.08163382858037949, 0.09200828522443771, -0.07998725026845932, 0.10182978957891464, 0.12061275541782379, 0.15164633095264435, -0.10088410973548889, 0.027303077280521393, 0.046362463384866714, -0.12377684563398361, -0.042988914996385574, 0.02885703556239605, 0.0856420248746872, 0.14718753099441528, -0.020586276426911354, 0.019253822043538094, 0.00564883416518569, -0.06214500591158867, -0.13441608846187592, -0.012898627668619156, -0.006836635526269674, -0.0952969342470169, -0.08110762387514114, 0.0530075766146183, 0.04818557947874069, -0.06429789215326309, 0.0896303653717041, -0.04293192923069, 0.0002460395044181496, -0.13705618679523468, -0.07993290573358536, -0.08951741456985474, -0.10715454071760178, 0.09741257131099701, -0.18689031898975372, 0.026755155995488167, -0.1254504770040512, -0.1833970546722412, 0.022565674036741257, 0.060642603784799576, 0.021611487492918968, 0.028961053118109703, 0.031714897602796555, -0.0979108065366745, -0.08638270944356918, -0.15082420408725739, 0.04189063981175423, 0.006019564811140299, 0.07702839374542236, 0.08509023487567902, -0.06384369730949402, -0.01039538998156786, -0.10295899212360382, 0.19639486074447632, 0.05983158200979233, 0.08040454238653183, 0.15787039697170258, 0.007375394459813833, -0.08915959298610687, 0.048396311700344086, 0.03371082618832588, 0.13930556178092957, 0.13987037539482117, -0.0012382573913782835, -0.04258178547024727, -0.12172498553991318, 0.035637084394693375, 0.07725334912538528, 0.08992793411016464, 0.032690394669771194, -0.02189769595861435, 0.18412743508815765, 0.10001599043607712, 0.08351629972457886, -0.006836450193077326, -0.12149816751480103, 0.18619799613952637, 0.12210866808891296, 0.09473437815904617, -0.11172939091920853, 0.051402509212493896, -0.1662205010652542, -0.10597006231546402, 0.07543983310461044, 0.07966714352369308, 0.08924241364002228, -0.07531553506851196, 0.18437346816062927, 0.08849907666444778, -0.11155570298433304, 0.14057721197605133, -0.10373653471469879, 0.021586161106824875, 0.09222868829965591, 0.043568097054958344, 0.0859733521938324, -0.023369621485471725, -0.10590634495019913, -0.15813738107681274, 0.06479232013225555, -0.03127123415470123, -0.006258824374526739, -0.011644592508673668, 0.056713029742240906, -0.051528818905353546], [0.003136708866804838, -0.08079139143228531, -0.12188198417425156, -0.1596604436635971, 0.12925101816654205, -0.022130480036139488, -0.13415147364139557, -0.15526126325130463, -0.08076342195272446, -0.0724344551563263, -0.03948523849248886, 0.12244370579719543, -0.1692819893360138, 0.012334257364273071, 0.15958307683467865, 0.093512162566185, 0.06343307346105576, 0.18377698957920074, 0.030611565336585045, -0.04136287048459053, -0.10747698694467545, -0.021924257278442383, -0.04792454466223717, 0.06179378926753998, -0.006348235532641411, 0.10142888128757477, -0.033817775547504425, -0.09193765372037888, -0.06269185245037079, 0.11811701208353043, -0.01667831279337406, -0.14155399799346924, -0.07750973105430603, 0.038323044776916504, -0.11533424258232117, -0.032170552760362625, -0.12969303131103516, -0.1188947781920433, 0.04238680377602577, -0.14282551407814026, -0.13920511305332184, 0.017988471314311028, -0.09231071174144745, 0.10126008093357086, 0.08704220503568649, -0.010353236459195614, 0.07510956376791, -0.17793285846710205, -0.17116668820381165, -0.13949599862098694, -0.08095066249370575, 0.025129951536655426, -0.04288555309176445, 0.057613011449575424, -0.06314170360565186, 0.07725188881158829, 0.10999322682619095, -0.045012570917606354, 0.13379494845867157, 0.04316764324903488, 0.07896043360233307, -0.004377949517220259, -0.1662050187587738, 0.06757784634828568, 0.050707992166280746, -0.09660636633634567, -0.08334522694349289, 0.036337047815322876, -0.09473778307437897, -0.038662489503622055, -0.05644872039556503, -0.06586463004350662, 0.1355583518743515, 0.031449850648641586, -0.059905316680669785, -0.056200262159109116, 0.005730262491852045, -0.04994837939739227, -0.09879337251186371, 0.005426640156656504, -0.1137997955083847, -0.022156337276101112, -0.04275527969002724, -0.17421826720237732, 0.09362591058015823, 0.08978192508220673, 0.005416641943156719, -0.11615663766860962, -0.1338258534669876, 0.01819280907511711, -0.04641883447766304, -0.1259855479001999, -0.10233037173748016, -0.10187260061502457, -0.1640557199716568, 0.10138201713562012, -0.05682233348488808, -0.08588673174381256, -0.045172031968832016, 0.02091689594089985, -0.06941162794828415, -0.06872804462909698, 0.12232451140880585, -0.04419902712106705, -0.07765794545412064, -0.057980265468358994, -0.15311399102210999, 0.03679349273443222, 0.0697580948472023, -0.09943125396966934, -0.05223171412944794, 0.0532822422683239, 0.03166285902261734, -0.14814916253089905, 0.13893693685531616, -0.17579247057437897, 0.05272335559129715, 0.06037319824099541, -0.1914134919643402, 0.1525074988603592, 0.17309653759002686, 0.06543330103158951, 0.004298363346606493, -0.14291375875473022, -0.04946538805961609, 0.0004944811807945371, -0.07958514243364334, 0.0936448723077774], [0.1766846626996994, -0.054487936198711395, -0.0745302215218544, 0.0015995962312445045, 0.08447127789258957, 0.04280778393149376, 0.007025142200291157, -0.0038811801932752132, -0.06731085479259491, 0.13986647129058838, -0.15083228051662445, -0.1182989552617073, 0.09471997618675232, -0.03153202682733536, -0.010824286378920078, 0.16370433568954468, 0.026093142107129097, 0.1201467365026474, -0.004116365686058998, 0.08894369751214981, 0.08448471128940582, 0.17799746990203857, 0.06747544556856155, -0.14919032156467438, 0.012860914692282677, -0.022562706843018532, 0.08772487938404083, -0.09684184938669205, 0.0218738354742527, -0.1346399039030075, 0.0310288667678833, 0.09241979569196701, 0.18167941272258759, 0.16813966631889343, -0.13518071174621582, -0.07933860272169113, 0.1349332481622696, -0.05551164969801903, 0.07225215435028076, 0.10056161880493164, 0.13618814945220947, -0.06668185442686081, -0.08762083202600479, -0.08760590106248856, 0.07619140297174454, -0.10920874774456024, 0.1269698441028595, -0.017363134771585464, 0.18650206923484802, 0.013173969462513924, -0.051791876554489136, 0.06363026052713394, 0.05850464478135109, -0.0645148977637291, 0.12493953108787537, 0.009632546454668045, 0.15748262405395508, 0.04263174906373024, -0.03167102485895157, -0.12078216671943665, 0.04072701930999756, -0.05231451243162155, 0.16746851801872253, -0.02662188559770584, 0.11269169300794601, -0.009594702161848545, -0.11857747286558151, -0.037565674632787704, 0.036922723054885864, 0.0002369454741710797, -0.08643291145563126, 0.11766219884157181, -0.08172035217285156, 0.09178662300109863, 0.07245513796806335, 0.10810098797082901, 0.13095682859420776, 0.11950559914112091, 0.092240110039711, 0.03415801376104355, 0.10161609202623367, 0.05045420303940773, -0.05247762054204941, 0.19389936327934265, -0.08681414276361465, -0.06037623807787895, -0.0025850562378764153, 0.20067289471626282, -0.04354894161224365, 0.07942377030849457, 0.12327992916107178, 0.08906099200248718, -0.0027168698143213987, 0.06941215693950653, 0.1628715693950653, 0.14494748413562775, 0.007364681456238031, -0.04869556427001953, -0.014026613906025887, 0.0015151756815612316, 0.07815997302532196, 0.08367443084716797, -0.10750027745962143, 0.0829649567604065, 0.02164238505065441, -0.02777237258851528, 0.16683964431285858, 0.02206743322312832, 0.0014103762805461884, 0.12318750470876694, 0.10406118631362915, -0.09048237651586533, 0.09663043916225433, -0.09001617133617401, 0.03217395022511482, 0.1828492134809494, 0.1018359437584877, 0.07920801639556885, 0.1513506919145584, -0.016479382291436195, -0.00701117143034935, -0.0018225603271275759, 0.13014565408229828, 0.05791281536221504, 0.09626568108797073, 0.12808015942573547, 0.12861119210720062, -0.01090987678617239], [0.007896892726421356, -0.08816458284854889, -0.03658076375722885, 0.07257508486509323, 0.13153618574142456, 0.028000270947813988, -0.10866670310497284, -0.0833185538649559, 0.03878294304013252, 0.0559467151761055, 0.07065854966640472, 0.18724514544010162, 0.031220948323607445, 0.1709693968296051, 0.06607426702976227, -0.043406978249549866, -0.028208112344145775, 0.12514007091522217, -0.05835825577378273, 0.12134038656949997, -0.11043286323547363, -0.03783605620265007, 0.006271325517445803, -0.08003377914428711, 0.058145154267549515, -0.028880320489406586, 0.12580394744873047, -0.1569274514913559, 0.02212836779654026, 0.17242509126663208, 0.03506895527243614, 0.10818109661340714, 0.13099366426467896, -0.07655135542154312, -0.05845880135893822, 0.1484903246164322, 0.08737609535455704, 0.10197100788354874, 0.041177425533533096, -0.008077909238636494, 0.07750963419675827, -0.1375381499528885, 0.022853214293718338, 0.15379609167575836, -0.06539895385503769, 0.13892929255962372, 0.011579038575291634, -0.003627162426710129, 0.17989090085029602, 0.07223904877901077, 0.06076507642865181, 0.04589807614684105, -0.051271144300699234, 0.0982334241271019, -0.07118499279022217, 0.02712426334619522, 0.07863033562898636, 0.021412258967757225, 0.12748722732067108, 0.09010592848062515, 0.1710100769996643, 0.1846824586391449, 0.11311095952987671, -0.04242382571101189, 0.08852406591176987, 0.04128771647810936, 0.13692422211170197, -0.06363458931446075, -0.019836682826280594, 0.01560622826218605, -0.1569540649652481, -0.0033212294802069664, 0.05980031564831734, 0.09994062781333923, 0.19504901766777039, 0.040755920112133026, 0.14386877417564392, 0.10952738672494888, -0.04844951257109642, -0.02767280302941799, 0.010922521352767944, 0.16507363319396973, -0.09087536484003067, 0.09897676110267639, 0.07227225601673126, 0.18441888689994812, 0.011914088390767574, 0.14433088898658752, -0.1499120444059372, -0.03173179179430008, 0.16235242784023285, 0.05383804440498352, 0.09687156975269318, 0.061980970203876495, 0.07963980734348297, 0.11514361947774887, 0.0182117260992527, 0.10430587828159332, 0.07590927183628082, -0.0368807427585125, 0.1479354351758957, 0.17770449817180634, 0.06908833980560303, 0.06363276392221451, 0.10859730839729309, 0.035193875432014465, 0.16614431142807007, 0.0359233096241951, -0.03828330710530281, 0.05109620839357376, 0.1789405345916748, -0.07769003510475159, -0.011062484234571457, 0.14654922485351562, 0.10036315023899078, 0.17572300136089325, 0.10700006783008575, 0.06351569294929504, 0.00910680741071701, -0.08108057826757431, 0.0063634030520915985, 0.149505153298378, 0.015110425651073456, -0.049390122294425964, -0.054319947957992554, 0.00524072116240859, 0.09614292532205582, -0.0606902651488781], [0.1602504998445511, -0.027301084250211716, -0.040315981954336166, 0.09992986172437668, 0.02081725187599659, 0.10433293879032135, 0.02690412849187851, 0.17940527200698853, -0.06335148960351944, -0.10315369814634323, -0.14774195849895477, -0.007282654754817486, 0.10838233679533005, 0.04741158336400986, 0.0050370898097753525, -0.02671736665070057, 0.03829154744744301, -0.10487505793571472, -0.14262662827968597, 0.02253802679479122, 0.06576584279537201, -0.1529996693134308, -0.10002626478672028, -0.015875715762376785, -0.06939584016799927, -0.05864907428622246, -0.01791783981025219, 0.04918277636170387, 0.16907334327697754, -0.03235379979014397, 0.0384751632809639, -0.08402501046657562, 0.14310629665851593, -0.08388164639472961, -0.04761773347854614, -0.055754076689481735, 0.17371869087219238, -0.03434424474835396, -0.04643721878528595, 0.19939357042312622, -0.0891435518860817, 0.07345792651176453, -0.10039713233709335, -0.17722919583320618, -0.01134916115552187, -0.1669740527868271, -0.14645105600357056, -0.012009182013571262, 0.03957609832286835, -0.1075853779911995, -0.143497034907341, 0.08825720846652985, -0.1520574986934662, -0.15625539422035217, 0.05689894035458565, 0.1955243945121765, 0.02863183431327343, 0.012404993176460266, 0.03030003048479557, 0.07261525839567184, -0.10903391987085342, 0.18232519924640656, -0.01371579710394144, -0.10161346942186356, -0.06773233413696289, 0.042559269815683365, 0.010049287229776382, -0.01737096719443798, -0.16358493268489838, 0.015705469995737076, 0.13156244158744812, -0.03503308817744255, 0.03022521547973156, -0.09208417683839798, 0.13851533830165863, -0.11127864569425583, 0.0015734236221760511, 0.1824501007795334, 0.024341588839888573, 0.052681680768728256, 0.018560197204351425, -0.02390417456626892, 0.08295050263404846, -0.01727469265460968, -0.03097350522875786, 0.05001356452703476, 0.01820962131023407, 0.030563892796635628, -0.01945595256984234, -0.06895123422145844, 0.009694657288491726, 0.149943009018898, -0.10335013270378113, 0.18803825974464417, 0.08050819486379623, 0.11919502913951874, -0.05414662882685661, -0.13517703115940094, -0.15674550831317902, 0.13969172537326813, 0.03455543518066406, 0.018361330032348633, -0.16490444540977478, 0.15744109451770782, -0.15215450525283813, 0.11356551200151443, 0.028405973687767982, 0.1701049953699112, 0.141647070646286, 0.015316415578126907, 0.17390573024749756, 0.179118812084198, -0.025085855275392532, 0.18698585033416748, 0.06884149461984634, 0.1811140924692154, -0.006794915068894625, -0.10723979026079178, -0.0012326340656727552, 0.028646444901823997, 0.03098147362470627, 0.014201910234987736, 0.19152063131332397, 0.1838732361793518, 0.1954677253961563, 0.1445501446723938, -0.13343045115470886, -0.13706767559051514], [0.009667696431279182, -0.11694017797708511, -0.02567635290324688, 0.025955529883503914, -0.08756162971258163, -0.06463542580604553, -0.0717703178524971, 0.1402689665555954, -0.13893751800060272, -0.10677133500576019, -0.030833279713988304, -0.01659146137535572, 0.18030329048633575, -0.12634453177452087, 0.05802597850561142, -0.1094304621219635, 0.011194905266165733, -0.024918561801314354, -0.14541098475456238, -0.06784940510988235, 0.020265331491827965, -0.0037847550120204687, 0.14894041419029236, 0.06857313960790634, -0.14036215841770172, -0.13914427161216736, -0.0071740467101335526, -0.03561893850564957, -0.04605138674378395, -0.17396874725818634, 0.014229239895939827, -0.09254420548677444, -0.010182168334722519, -0.1483002007007599, -0.04313962906599045, 0.04889984801411629, 0.04400026798248291, -0.0375414676964283, -0.1475270539522171, 0.10844768583774567, 0.19700326025485992, -0.0752333551645279, 0.044936709105968475, -0.06115464121103287, -0.08393832296133041, 0.005236723460257053, 0.01269345823675394, 0.13244925439357758, 0.11915478855371475, 0.13119900226593018, 0.08644913136959076, -0.09194320440292358, 0.0864829421043396, 0.10009889304637909, 0.032437533140182495, 0.01165820099413395, 0.00482761487364769, -0.16474835574626923, -0.07671894878149033, 0.1090184673666954, -0.017332814633846283, 0.0751400962471962, 0.09002942591905594, 0.07077387720346451, -0.027758121490478516, -0.10223653167486191, -0.15114347636699677, -0.11369914561510086, -0.10120370984077454, 0.17403963208198547, -0.13192680478096008, -0.10804055631160736, 0.07480531930923462, -0.021921778097748756, 0.08610302209854126, -0.19269783794879913, -0.04272335022687912, 0.016958799213171005, -0.031407348811626434, 0.17555004358291626, -0.06061214581131935, -0.09583500772714615, 0.03619084134697914, 0.07967647910118103, 0.04420975595712662, -0.07113036513328552, 0.12060585618019104, 0.1385202556848526, -0.0037593189626932144, -0.0962284728884697, 0.0983373150229454, -0.07326321303844452, 0.12276395410299301, -0.06108070909976959, 0.16917289793491364, 0.18447068333625793, 0.1948547214269638, 0.10150909423828125, -0.026761502027511597, 0.04117162525653839, 0.015388724394142628, 0.06277216225862503, -0.12155608832836151, 0.13737159967422485, 0.12154830247163773, 0.18686753511428833, 0.09101523458957672, 0.09109039604663849, -0.018146170303225517, 0.13278602063655853, 0.026605842635035515, 0.09466956555843353, -0.12185165286064148, 0.08656920492649078, 0.05695652216672897, 0.02528921328485012, -0.12820197641849518, 0.0030842069536447525, 0.02551174722611904, -0.08678872138261795, -0.07034865021705627, -0.07277461886405945, 0.1894836276769638, 0.07213092595338821, 0.11138984560966492, -0.08942325413227081, -0.01299100462347269, -0.0181532371789217], [-0.01905878446996212, 0.030840260908007622, 0.1855190396308899, -0.10055144876241684, -0.10657943040132523, 0.15051117539405823, 0.07266217470169067, 0.0004082585801370442, 0.12480153143405914, 0.10458172112703323, 0.03387105464935303, 0.13419313728809357, -0.0398750938475132, 0.05002640187740326, 0.14251826703548431, 0.14522694051265717, 0.041765011847019196, 0.14543095231056213, 0.11536860466003418, 0.006897585932165384, 0.100466288626194, 0.18734391033649445, 0.125336691737175, -0.017175981774926186, -0.046768032014369965, 0.14404864609241486, 0.10677853971719742, -0.0668625608086586, -0.062480516731739044, 0.048102159053087234, 0.17578229308128357, 0.19206494092941284, -0.08340460807085037, 0.16812969744205475, 0.1737809032201767, -0.07670838385820389, 0.15626512467861176, 0.1885865032672882, 0.02434028685092926, -0.07493134588003159, 0.16233277320861816, -0.0289863683283329, 0.012355469167232513, -0.049848221242427826, 0.044388264417648315, 0.18293553590774536, 0.11208578944206238, -0.08978812396526337, 0.08406620472669601, 0.040981922298669815, -0.10570920258760452, 0.15318092703819275, -0.056019991636276245, 0.03142214193940163, 0.04574495181441307, -0.048470668494701385, 0.14332860708236694, -0.02195829525589943, 0.017054343596100807, -0.09591712057590485, 0.10057294368743896, 0.017307361587882042, 0.15206550061702728, -0.13594003021717072, 0.019644737243652344, 0.04355848580598831, -0.11896825581789017, 0.014072760939598083, -0.09359882026910782, 0.07476285099983215, 0.11593178659677505, 0.001275569899007678, -0.04404076561331749, 0.12513740360736847, -0.032302845269441605, -0.04975520819425583, -0.07198753952980042, 0.07243612408638, 0.13898314535617828, -0.010041646659374237, 0.03233661875128746, 0.06412091851234436, -0.1192362979054451, -0.00934735406190157, 0.14605984091758728, 0.15618789196014404, 0.0616588331758976, -0.021722251549363136, 0.004911024123430252, -0.10816730558872223, 0.05750325322151184, 0.09129390865564346, 0.062152959406375885, 0.04625486209988594, 0.09789694100618362, 0.1585066318511963, -0.0016147360438480973, 0.17175953090190887, 0.0639522597193718, 0.0803551971912384, -0.12378591299057007, 0.166709303855896, 0.0898779034614563, -0.0987657904624939, 0.06585443019866943, -0.04107918217778206, 0.017924737185239792, 0.18407577276229858, 0.1476467251777649, -0.06523909419775009, -0.03121543861925602, 0.16216392815113068, 0.10490579903125763, 0.12267836183309555, 0.15713423490524292, -0.09324289113283157, -0.0275128073990345, 0.022201163694262505, -0.06511323899030685, -0.07421785593032837, -0.01794913038611412, -0.0817783996462822, 0.15157130360603333, 0.13987132906913757, 0.13840310275554657, -0.03320731967687607, 0.0673169195652008, -0.12370899319648743], [0.06282519549131393, -0.02706877700984478, 0.023664552718400955, -0.004874813370406628, 0.15009433031082153, 0.024702126160264015, 0.10277710855007172, 0.07892733067274094, -0.024866854771971703, 0.17495205998420715, 0.09492430835962296, -0.20316945016384125, -0.10306671261787415, 0.03360643982887268, -0.1683107167482376, -0.15230846405029297, 0.11490780860185623, 0.01571008563041687, -0.0004533150640781969, 0.139822319149971, 0.09539396315813065, 0.06168634817004204, 0.17981281876564026, -0.012824596837162971, 0.010144113563001156, 0.05335294455289841, -0.09089450538158417, 0.010411491617560387, 0.10871373116970062, 0.09424685686826706, -0.11002499610185623, 0.12031921744346619, -0.12359265983104706, 0.05487653613090515, -0.17013129591941833, -0.041758738458156586, 0.1692165732383728, 0.1757683902978897, 0.06750636547803879, 0.12940843403339386, -0.05261747166514397, -0.08961711078882217, 0.05035033077001572, -0.08443105220794678, -0.11181313544511795, 0.05691669136285782, 0.05980393663048744, -0.04604143649339676, -0.07485304772853851, -0.024454807862639427, -0.010232719592750072, 0.004361025057733059, 0.025845015421509743, -0.17577524483203888, -0.12907017767429352, -0.0746823251247406, 0.023832127451896667, 0.004969789180904627, -0.173264741897583, -0.059779781848192215, -0.042616065591573715, 0.17039449512958527, 0.18183065950870514, 0.02204733155667782, 0.0623050220310688, -0.07990506291389465, -0.0779295340180397, -0.06783296167850494, -0.18998105823993683, 0.011688783764839172, -0.08667386323213577, 0.13650992512702942, 0.006709268316626549, 0.13624727725982666, -0.12008457630872726, -0.015308474190533161, -0.001923483214341104, 0.17354263365268707, 0.03728292137384415, 0.1424073576927185, -4.3505999201443046e-05, 0.14543624222278595, -0.06933583319187164, -0.02056230790913105, 0.14808708429336548, -0.10929883271455765, 0.025529714301228523, 0.030679916962981224, -0.053503990173339844, 0.09283071011304855, -0.13610883057117462, -0.030027063563466072, 0.05494343116879463, 0.021256737411022186, 0.11177174746990204, 0.0832751989364624, 0.01332422997802496, 0.012982935644686222, -0.16566996276378632, 0.04256223142147064, 0.16200260818004608, 0.06919489800930023, 0.11068973690271378, -0.007589220069348812, -0.0188231710344553, 0.12859976291656494, -0.058097805827856064, 0.0853019580245018, 0.15008217096328735, -0.09976596385240555, 0.14280052483081818, -0.06335106492042542, -0.17277508974075317, -0.056446000933647156, 0.0037390380166471004, 0.1695409119129181, -0.03150676190853119, -0.008936399593949318, -0.04201412573456764, 0.06090695038437843, -0.09387606382369995, -0.07272817194461823, 0.15591663122177124, -0.1048017144203186, -0.052608147263526917, -0.02851877361536026, -0.054569061845541, 0.041488271206617355], [0.18454651534557343, -0.08218018710613251, 0.054275672882795334, 0.01322980783879757, 0.029333898797631264, -0.026500683277845383, 0.10831790417432785, 0.10439503192901611, -0.03199581056833267, -0.03298655152320862, -0.03740876913070679, -0.030012687668204308, -0.017271243035793304, 0.06812111288309097, -0.14829780161380768, 0.0311211459338665, -0.06395547091960907, -0.16132016479969025, 0.1260031759738922, -0.015119809657335281, 0.1818610280752182, 0.08931276947259903, 0.0025821831077337265, 0.04877723753452301, -0.13152159750461578, -0.1254425048828125, -0.09165968745946884, -0.05037165805697441, -0.03261720761656761, -0.01300001423805952, 0.06846392899751663, 0.14062057435512543, -0.05466669797897339, -0.008406932465732098, 0.11497781425714493, 0.11237367987632751, 0.007701931055635214, 0.05722861737012863, -0.003969061654061079, -0.0536743700504303, 0.1802251785993576, -0.048700932413339615, -0.07812636345624924, -0.07519573718309402, 0.08518384397029877, -0.16016949713230133, 0.10641065984964371, 0.10732163488864899, 0.01853199489414692, 0.02274203673005104, 0.08227907866239548, 0.0306880921125412, 0.09022905677556992, 0.06260663270950317, -0.09829644113779068, 0.17361252009868622, -0.02886309288442135, 0.03221734240651131, -0.16841819882392883, -0.07928319275379181, 0.10581296682357788, 0.0024482293520122766, 0.008661191910505295, -0.08135176450014114, 0.0232735313475132, 0.1001558005809784, 0.053421467542648315, -0.011258259415626526, -0.13646720349788666, -0.05317944660782814, -0.08501846343278885, 0.032251641154289246, 0.036955542862415314, 0.18109773099422455, -0.025104662403464317, 0.040376413613557816, 0.06920003890991211, -0.10561758279800415, 0.09108521044254303, 0.12528273463249207, -0.11606919020414352, 0.10956259071826935, 0.0430951826274395, 0.11056432127952576, -0.034818246960639954, -0.06931938976049423, -0.00027892825892195106, -0.08796000480651855, 0.05496285483241081, -0.09909475594758987, -0.00822443887591362, 0.1952284276485443, 0.04958224669098854, 0.16360889375209808, 0.01505295466631651, -0.029303215444087982, 0.19343362748622894, 0.0255076102912426, -0.12210638076066971, 0.049507662653923035, 0.19121532142162323, -0.05604025721549988, -0.039111822843551636, -0.013032199814915657, 0.08682922273874283, 0.06458833068609238, 0.020804388448596, -0.07231838256120682, 0.08599302917718887, -0.050157804042100906, 0.15240876376628876, 0.19800016283988953, -0.023409569635987282, -0.09894783794879913, 0.015274361707270145, -0.09743855148553848, -0.13948994874954224, -0.11651407927274704, 0.11766216903924942, -0.09746326506137848, 0.034489721059799194, -0.053368669003248215, -0.08376332372426987, 0.10438544303178787, 0.1572137326002121, -0.06821924448013306, -0.11518875509500504, 0.10415444523096085], [0.17884229123592377, -0.10251247137784958, 0.04945630952715874, 0.06558489799499512, -0.12856552004814148, 0.14186599850654602, -0.041259512305259705, -0.08640114217996597, -0.17611895501613617, -0.09960825741291046, 0.06483092904090881, 0.01670863665640354, 0.029706230387091637, -0.14222165942192078, -0.010513917542994022, -0.004056399688124657, 0.011131132952868938, -0.09638860076665878, 0.08375151455402374, 0.13330085575580597, 0.16725437343120575, 0.12702535092830658, -0.0066778711043298244, 0.03358488157391548, -0.11711686849594116, 0.09933438152074814, -0.0722874253988266, 0.14452780783176422, -0.04479244351387024, 0.07584279030561447, -0.08035765588283539, 0.16193842887878418, -0.043463192880153656, -0.19540004432201385, -0.09373248368501663, 0.02963552251458168, 0.14185652136802673, -0.08872038871049881, -0.09810024499893188, -0.0737128034234047, -0.019664697349071503, -0.005766963120549917, 0.12346764653921127, -0.025467386469244957, -0.12908363342285156, -0.006716674193739891, -0.14562691748142242, -0.0422276146709919, 0.05554351210594177, 0.12999297678470612, -0.1579064428806305, -0.021370338276028633, -0.12516815960407257, 0.05031422898173332, -0.06435620784759521, 0.125581756234169, 0.059993926435709, 0.06192593649029732, -0.1979925036430359, 0.09309815615415573, -0.19621093571186066, -0.009833785705268383, 0.08899354189634323, -0.013234488666057587, 0.17708726227283478, -0.19945353269577026, -0.14969831705093384, 0.02478717640042305, -0.05366985872387886, 0.029343947768211365, 0.07703915238380432, 0.07833152264356613, -0.07982417196035385, 0.12406910210847855, -0.0757102519273758, -0.0035279053263366222, -0.09255645424127579, 0.005464076530188322, 0.002690125023946166, 0.15751972794532776, -0.08629996329545975, 0.18159450590610504, 0.19267499446868896, 0.016910947859287262, -0.007402468007057905, 0.11040545254945755, 0.007896806113421917, 0.020179186016321182, 0.06449975818395615, 0.018032366409897804, -0.1813146322965622, 0.13612790405750275, 0.10897517949342728, -0.06816121935844421, -0.05323944240808487, 0.15789638459682465, 0.06431464850902557, -0.04450225085020065, 0.05365191400051117, 0.2057192623615265, 0.05554516613483429, 0.09529843181371689, -0.0465974323451519, 0.18968512117862701, 0.012532022781670094, -0.0024879074189811945, -0.1128118559718132, -0.11133183538913727, 0.04548356682062149, -0.09233589470386505, 0.1694316267967224, 0.17567110061645508, -0.16584935784339905, -0.07782827317714691, -0.12118159979581833, 0.04367714002728462, 0.06818200647830963, 0.018399380147457123, -0.09418538212776184, 0.06511423736810684, -0.14866437017917633, 0.045501865446567535, 0.03454087674617767, 0.15224584937095642, 0.07630909979343414, 0.13445231318473816, -0.06423317641019821, -0.11250314861536026], [0.1624213010072708, -0.04420116916298866, 0.010326947085559368, 0.07705453783273697, -0.07917960733175278, 0.17450043559074402, -0.09285762161016464, 0.119545578956604, 0.14039453864097595, 0.1867997944355011, -0.02568589337170124, 0.13232749700546265, 0.17273791134357452, 0.16310721635818481, 0.13280773162841797, 0.13137279450893402, 0.04550671577453613, 0.14474733173847198, 0.025203829631209373, 0.17304672300815582, 0.08329903334379196, 0.11063402146100998, -0.1082686185836792, 0.12494733929634094, 0.1324717402458191, 0.12908630073070526, 0.11392249166965485, -0.093360036611557, 0.012783299200236797, 0.013212849386036396, 0.08832244575023651, -0.021052900701761246, 0.17630162835121155, -0.085246741771698, 0.14815488457679749, 0.18482957780361176, -0.07999439537525177, 0.0852494165301323, -0.05207209289073944, 0.03071059286594391, -0.06714921444654465, 0.03319951519370079, 0.11066079139709473, -0.07352523505687714, 0.16998349130153656, 0.16785435378551483, -0.09971939027309418, 0.003697097534313798, 0.019168497994542122, 0.03256460651755333, 0.034772180020809174, -0.10305886715650558, 0.012231459841132164, -0.08293471485376358, -0.008951782248914242, 0.18840306997299194, 0.08417905122041702, 0.12782685458660126, 0.18044327199459076, -0.07476013153791428, 0.10084955394268036, 0.05734630674123764, -0.02924388460814953, -0.047014765441417694, 0.04819904640316963, 0.15431876480579376, 0.12421052902936935, 0.09451763331890106, 0.04740092158317566, 0.07749705761671066, 0.0515202172100544, 0.08968013525009155, -0.10837050527334213, 0.07198452204465866, 0.051228832453489304, -0.10817866027355194, 0.002803766867145896, -0.11257718503475189, 0.04453998804092407, 0.11273076385259628, 0.1287824660539627, -0.05994601175189018, -0.035411540418863297, 0.02335057593882084, 0.1129014864563942, 0.10748952627182007, 0.004096712451428175, 0.11141893267631531, 0.008768863044679165, 0.16303962469100952, 0.0694451630115509, 0.1653895378112793, 0.027760697528719902, 0.0043912725523114204, 0.028068793937563896, 0.10884663462638855, -0.00057551683858037, -0.05790684372186661, 0.04056170955300331, 0.17842844128608704, -0.03280646353960037, 0.035269223153591156, -0.07223011553287506, 0.0036207137163728476, 0.17246267199516296, 0.004729417618364096, 0.06954509019851685, 0.06328582763671875, 0.16619248688220978, 0.16672804951667786, 0.09274449944496155, 0.13330191373825073, 0.013564405031502247, 0.06757406145334244, 0.15954338014125824, 0.06388607621192932, -0.04639844968914986, 0.047884318977594376, 0.047685641795396805, 0.0013841262552887201, 0.040463756769895554, 0.03827759623527527, 0.1054348424077034, 0.10245280712842941, -0.06975851207971573, 0.12985455989837646, 0.03125251829624176, -0.10533453524112701], [0.09816572815179825, 0.005213492084294558, 0.11994637548923492, 0.023020466789603233, 0.1459558606147766, -0.0825505405664444, -0.1376696228981018, 0.0365121029317379, -0.11040876805782318, 0.10989337414503098, 0.05685022100806236, -0.1262514591217041, -0.16764752566814423, -0.023397596552968025, -0.14047740399837494, -0.1502542495727539, -0.008411617949604988, -0.1342133730649948, -0.10682763159275055, -0.12613557279109955, -0.020761454477906227, -0.0021523090545088053, -0.16375930607318878, -0.046703219413757324, 0.08711003512144089, 0.016131427139043808, 0.11412656307220459, 0.06362143903970718, 0.05283133685588837, 0.11167055368423462, -0.06451307982206345, -0.15230165421962738, 0.011333439499139786, 0.050884176045656204, 0.010609770193696022, -0.11678024381399155, 0.08169814944267273, 0.045601651072502136, 0.06709575653076172, 0.0350835919380188, -0.06967378407716751, 0.12212705612182617, 0.06785538047552109, 0.04557979479432106, -0.09235857427120209, 0.1388297975063324, -0.15145893394947052, -0.19481255114078522, -0.07542107999324799, 0.1512121707201004, -0.1331055909395218, 0.11606869101524353, -0.023084208369255066, 0.13010665774345398, 0.12132887542247772, -0.029929982498288155, -0.1277899593114853, -0.04807836562395096, 0.05845282971858978, 0.11965635418891907, 0.12910577654838562, 0.07314097881317139, -0.09694437682628632, -0.11047632247209549, -0.015104423277080059, 0.14737409353256226, -0.07738378643989563, 0.04645154997706413, -0.11828471720218658, -0.1758529543876648, -0.05722767487168312, -0.02717248536646366, -0.09090907126665115, 0.04086762294173241, -0.17868830263614655, 0.0031210745219141245, 0.07721035927534103, -0.13774023950099945, 0.076703280210495, 0.005498602986335754, -0.09609533846378326, 0.06175314262509346, 0.0853004977107048, -0.11693228036165237, -0.10435638576745987, 0.04383920505642891, -0.035292305052280426, -0.15991069376468658, 0.01996964029967785, 0.07542622834444046, 0.11493100970983505, -0.10406894981861115, -0.06838375329971313, -0.002955269766971469, -0.14529143273830414, 0.07999773323535919, 0.110235795378685, 0.04640103876590729, -0.11554662883281708, 0.029851922765374184, 0.018873777240514755, -0.023706303909420967, 0.0920831486582756, -0.12902215123176575, -0.017690278589725494, -0.020427551120519638, -0.1419517993927002, 0.10569577664136887, -0.08322606235742569, -0.020556986331939697, -0.10708367824554443, -0.025193283334374428, -0.09695073962211609, -0.08292200416326523, -0.11663706600666046, -0.17149800062179565, -0.040283218026161194, -0.0747695118188858, -0.106903575360775, -0.14105282723903656, -0.0268690288066864, 0.07845960557460785, 0.012598824687302113, -0.08360984176397324, -0.16462644934654236, 0.04289684444665909, 0.14062628149986267, 0.0894724652171135], [-0.06555342674255371, -0.09527059644460678, -0.05166955664753914, 0.0801418349146843, 0.07776132971048355, 0.027879053726792336, 0.12344653904438019, 0.04077807068824768, -0.10001593828201294, 0.07957788556814194, 0.09995764493942261, 0.10600227862596512, 0.05552364140748978, -0.019745973870158195, 0.01573861576616764, 0.015455232001841068, 0.10992900282144547, -0.14250680804252625, 0.10795539617538452, 0.08096147328615189, 0.12911750376224518, -0.1491391658782959, -0.05067377910017967, 0.13919709622859955, 0.13155417144298553, 0.10165759176015854, 0.14452318847179413, 0.11338017135858536, 0.009126121178269386, -0.0526481457054615, -0.04092627763748169, -0.0984954684972763, -0.05654800683259964, 0.07454925775527954, -0.1487990915775299, -0.13732242584228516, 0.03162315487861633, -0.09385674446821213, -0.07063832134008408, 0.157229945063591, -0.12058542668819427, -0.04896538332104683, -0.002696678275242448, 0.06788095831871033, -0.04840734601020813, -0.061440642923116684, -0.15327920019626617, -0.13275137543678284, 0.13623684644699097, -0.0890563577413559, 0.04417334496974945, -0.10791569948196411, -0.027375347912311554, -0.050731875002384186, 0.14386120438575745, 0.07139229774475098, -0.08079969882965088, 0.04395552724599838, -0.09939409047365189, -0.11555396765470505, -0.023730896413326263, 0.046823035925626755, -0.0726371631026268, 0.1089538112282753, 0.0840132087469101, 0.0138027872890234, 0.09220365434885025, 0.09842486679553986, 0.11553766578435898, -0.1267172396183014, -0.012070504948496819, 0.11014121770858765, 0.05908849462866783, -0.11189193278551102, 0.0329289436340332, -0.09402735531330109, 0.08027614653110504, 0.005840926431119442, -0.13628998398780823, -0.03900294378399849, 0.02923830784857273, -0.09773653000593185, -0.03146498277783394, -0.12746880948543549, 0.12063036859035492, 0.10959314554929733, -0.04804152250289917, 0.10876252502202988, 0.12654070556163788, 0.15004828572273254, 0.1476057469844818, -0.05845165252685547, -0.04503612592816353, -0.12899096310138702, 0.07451920211315155, -0.12744863331317902, -0.10539605468511581, -0.10326803475618362, -0.0875108540058136, 0.04533248767256737, 0.033511683344841, 0.07616926729679108, 0.05304764583706856, -0.07337839156389236, -0.08333322405815125, 0.04468768090009689, -0.035498593002557755, -0.04055650532245636, 0.10220633447170258, -0.06386677920818329, 0.1394854635000229, 0.1304081231355667, -0.15518516302108765, -0.09680269658565521, -0.07542368024587631, 0.13880452513694763, 0.06774795800447464, 0.08483947813510895, -0.11531602591276169, 0.08853615820407867, -0.11429495364427567, 0.07162988930940628, 0.14357194304466248, -0.04989352077245712, 0.09108345210552216, 0.13686908781528473, 0.04970342665910721, -0.11197515577077866], [0.17379413545131683, 0.06927952170372009, -0.14705415070056915, 0.021896515041589737, 0.14170201122760773, 0.06873201578855515, -0.06364366412162781, 0.042617835104465485, 0.10456157475709915, -0.024177640676498413, 0.03934676572680473, -0.06424090266227722, -0.10029127448797226, -0.09373034536838531, 0.08354518562555313, 0.06004640460014343, -0.07536289840936661, -0.08348402380943298, -0.003400334855541587, 0.1739654392004013, 0.019479621201753616, 0.08887318521738052, -0.00021221999486442655, -0.13671830296516418, 0.08712998777627945, 0.14143909513950348, -0.017084965482354164, 0.018306110054254532, 0.16981656849384308, 0.10230068862438202, -0.10566090792417526, -0.04141773283481598, 0.039656683802604675, -0.06902060657739639, 0.06560297310352325, 0.11707574129104614, 0.03542240336537361, 0.07376769185066223, 0.08480741083621979, 0.05469918251037598, -0.008272144943475723, -0.04058701545000076, 0.10120642185211182, -0.0766565352678299, 0.062442757189273834, -0.09081015735864639, -0.08270473778247833, -0.011046705767512321, 0.02966456674039364, 0.016769740730524063, -0.015443803742527962, 0.012358425185084343, -0.017547456547617912, -0.07312645018100739, -0.03401172161102295, 0.06807371228933334, 0.039502404630184174, 0.06724085658788681, 0.023457860574126244, 0.032767631113529205, 0.1286313533782959, 0.12047602981328964, 0.06236930564045906, -0.019717836752533913, 0.15901973843574524, 0.07538098096847534, -0.07459855824708939, 0.10284966975450516, -0.11246378719806671, 0.09011083841323853, 0.10488412529230118, -0.03903864696621895, -0.06999491900205612, 0.15566349029541016, 0.0041493698954582214, 0.00815581250935793, 0.07137128710746765, -0.11502977460622787, -0.01492384634912014, 0.00994408130645752, 0.06498242914676666, -0.08456514030694962, 0.11052257567644119, 0.053900886327028275, 0.041927535086870193, -0.05608115717768669, -0.015012928284704685, 0.14664316177368164, -0.0017737793968990445, 0.030669482424855232, -0.11213359236717224, -0.06809849292039871, 0.13863623142242432, 0.08207520842552185, 0.18957747519016266, 0.14064568281173706, 0.17906346917152405, -0.012863927520811558, -0.18723343312740326, 0.1280251443386078, 0.0833977535367012, -0.009730245918035507, 0.08059579133987427, -0.09083503484725952, -0.13582216203212738, 0.1888248175382614, 0.1332477331161499, 0.09426913410425186, 0.16557233035564423, 0.17213156819343567, 0.07868723571300507, 0.1416764110326767, -0.003257721196860075, 0.10181029140949249, -0.014333491213619709, 0.1525784730911255, -0.06940166652202606, 0.09167104959487915, -0.0326031818985939, 0.13673357665538788, 0.1008654311299324, -0.104143887758255, -0.07918482273817062, 0.027234209701418877, 0.07129055261611938, -0.05465379357337952, -0.08457124978303909, -0.09311003983020782], [0.16444408893585205, 0.07170385867357254, -0.14254282414913177, 0.15338826179504395, 0.12562206387519836, 0.20577126741409302, -0.025360170751810074, 0.10519788414239883, -0.13113883137702942, 0.01422791089862585, -0.11933810263872147, -0.06197100877761841, -0.10486672818660736, 0.0747164636850357, 0.030057130381464958, 0.03504009172320366, -0.1486520618200302, -0.1759876310825348, -0.005448171403259039, 0.10807756334543228, 0.06252545863389969, -0.04854332655668259, 0.14173048734664917, -0.13789184391498566, 0.09998756647109985, -0.05715303495526314, 0.08225150406360626, -0.12307985126972198, -0.11306432634592056, -0.16651755571365356, 0.0559467114508152, 0.05862988904118538, -0.04231422021985054, -0.00042410430614836514, 0.08249476552009583, 0.002394190290942788, -0.08083795011043549, 0.15843723714351654, -0.018574150279164314, -0.0018788346787914634, 0.14495529234409332, 0.10914412885904312, 0.08998892456293106, 0.07783567905426025, -0.11163768917322159, -0.1447841078042984, -0.004449718631803989, 0.11465813219547272, -0.019991092383861542, 0.033501435071229935, 0.04161693900823593, -0.1567826271057129, 0.06434913724660873, 0.055737096816301346, -0.07019570469856262, 0.010782579891383648, -0.021485360339283943, 0.09231455624103546, -0.17832207679748535, -0.05255511403083801, -0.11086495220661163, 0.07839087396860123, 0.13587942719459534, -0.11185756325721741, -0.0925511047244072, -0.015808556228876114, -0.14559313654899597, -0.15903009474277496, -0.09463033080101013, 0.12964090704917908, -0.012737172655761242, 0.06904572993516922, -0.14289948344230652, -0.032120950520038605, 0.12322453409433365, -0.12648990750312805, 0.16257523000240326, -0.054712411016225815, 0.06738042086362839, -0.00914325937628746, -0.1241951435804367, 0.03390629217028618, -0.01430542767047882, -0.022197483107447624, 0.1682557910680771, -0.022305574268102646, 0.17550267279148102, 0.012275212444365025, 0.13224206864833832, -0.07902159541845322, -0.2042701095342636, 0.19098910689353943, 0.11549904197454453, 0.18190574645996094, -0.03844320774078369, 0.19943566620349884, 0.008931964635848999, -0.18795146048069, -0.15667536854743958, 0.15223391354084015, -0.06602878123521805, 0.061327725648880005, 0.051592063158750534, -0.00441729137673974, -0.06075894087553024, -0.00933818332850933, -0.1020960733294487, 0.017692571505904198, -0.04716336354613304, 0.19347627460956573, -0.10187211632728577, -0.040693026036024094, -0.07107462733983994, 0.18091067671775818, -0.13215723633766174, -0.019295943900942802, -0.15084455907344818, -0.054332055151462555, 0.08282596617937088, 0.1492772251367569, 0.04096604138612747, -0.013280505314469337, 0.013848874717950821, -0.03273108974099159, 0.0927196815609932, -0.08172362297773361, -0.20042285323143005, -0.011029263027012348], [0.06295549869537354, 0.18876326084136963, 0.16797009110450745, 0.06639343500137329, 0.045333247631788254, 0.036654531955718994, -0.14658044278621674, -0.04189271852374077, 0.03888970613479614, 0.03643129765987396, 0.09629735350608826, -0.06175156682729721, -0.04156976193189621, 0.11328115314245224, 0.1560378521680832, -0.0524454265832901, 0.1829897165298462, 0.18334586918354034, 0.11193830519914627, -0.14308452606201172, -0.027607077732682228, 0.1021764874458313, -0.18418224155902863, -0.05689634382724762, 0.02125832997262478, -0.014395874924957752, 0.09001483023166656, 0.04248598590493202, 0.012381910346448421, -0.09801462292671204, 0.12138821929693222, -0.024871619418263435, -0.002629518276080489, 0.12657280266284943, 0.1522541493177414, -0.053573787212371826, -0.11805005371570587, -0.13998979330062866, -0.021783536300063133, -0.09412595629692078, -0.17296202480793, -0.09114524722099304, 0.011491196230053902, 0.06455112248659134, 0.0344918817281723, 0.05504441633820534, 0.15676793456077576, 0.07613271474838257, -0.0012607115786522627, -0.06406347453594208, 0.03367643430829048, 0.07992271333932877, -0.007620610296726227, 0.1497797966003418, 0.09020476788282394, -0.09616453945636749, 0.09387268871068954, 0.0021295694168657064, -0.0681442990899086, -0.11171525716781616, 0.11914967745542526, -0.07819367200136185, -0.018108172342181206, 0.1284896433353424, -0.15253300964832306, -0.08113081008195877, 0.02427194081246853, 0.021542273461818695, 0.055901091545820236, -0.14336220920085907, -0.07640990614891052, -0.10907702147960663, 0.08967071026563644, -0.11097261309623718, 0.04045228660106659, -0.024048293009400368, -0.05988168716430664, -0.12319305539131165, 0.09276217967271805, 0.056649234145879745, -0.03753795474767685, 0.07249720394611359, -0.06304981559515, 0.00011627344065345824, -0.02625866048038006, 0.06559320539236069, 